#pragma once

const float conv_weights[8][3][3] = {
  {
    {-0.412054, 0.156988, -0.181838},
    {0.263249, -0.079113, 0.221480},
    {-0.206716, -0.458531, -0.109497},
  },
  {
    {0.946715, 0.175310, -1.140750},
    {-0.902349, -1.308645, -0.155892},
    {-0.577831, 0.420700, 0.681332},
  },
  {
    {-0.005245, 0.130580, 0.063760},
    {0.137248, 0.307691, -0.361130},
    {0.100026, 0.110396, -0.511503},
  },
  {
    {0.021028, 0.628813, 0.624736},
    {-0.241506, 0.634761, 0.000795},
    {-1.515805, -1.009550, -1.222487},
  },
  {
    {0.072082, -0.067567, -0.030980},
    {-0.392621, 0.322633, -0.000889},
    {-0.329456, 0.323725, -0.018789},
  },
  {
    {-0.312755, -0.991833, -0.660253},
    {0.265775, -0.051919, -0.745681},
    {0.629524, 0.501656, -0.185352},
  },
  {
    {-1.068135, -0.115211, 0.285539},
    {-0.692380, -0.129524, 0.736745},
    {-1.040812, -0.196356, 0.559812},
  },
  {
    {0.150793, 0.080865, 0.022554},
    {-0.195991, 0.144107, 0.009284},
    {-0.049192, 0.069731, 0.021226},
  },
};

const float fc_weights[10][1352] = {
  {0.230422, -0.141771, -0.126847, -0.257286, -0.144230, -0.213288, -0.148899, -0.085755, -0.108893, -0.317449, -0.163098, -0.154147, -0.096403, 0.120273, 0.007661, -0.152308, -0.088611, -0.046699, -0.143560, -0.118470, -0.058462, -0.103563, -0.040111, -0.181741, -0.035501, -0.216916, -0.099847, -0.078281, -0.199653, -0.127731, -0.203353, -0.119769, -0.053800, -0.020790, -0.046536, -0.030259, 0.038817, -0.108958, -0.188738, 0.037211, -0.189181, -0.106757, -0.159702, -0.065948, -0.033687, 0.005470, 0.106478, 0.133824, 0.073531, 0.067845, 0.058248, -0.035725, -0.015900, 0.005623, -0.075809, -0.053158, -0.056100, -0.030240, 0.058945, 0.188455, 0.194795, 0.144089, -0.026055, -0.038747, -0.074416, 0.013749, -0.074971, -0.098841, -0.086928, -0.035892, -0.024237, 0.014886, -0.035753, -0.018542, 0.096265, 0.097603, 0.112842, -0.005674, -0.048481, 0.086711, -0.018959, -0.038636, -0.019841, -0.157579, -0.256230, -0.254788, -0.105763, 0.034294, 0.124479, 0.091692, -0.171251, -0.206807, 0.012670, 0.165466, 0.081120, -0.000603, -0.201306, -0.359709, -0.283156, -0.117581, 0.034097, 0.088589, 0.021272, -0.131546, -0.175310, -0.025024, 0.033416, 0.101827, -0.010082, -0.248716, -0.201577, -0.086205, 0.006904, 0.031846, 0.039716, 0.063761, -0.109907, -0.166166, 0.069064, 0.009292, 0.109318, 0.148646, -0.026940, -0.038620, 0.036766, -0.030487, 0.030233, -0.021860, -0.014344, -0.112166, -0.107574, 0.047753, -0.013330, 0.048013, 0.095130, 0.025501, -0.029937, -0.045003, -0.057789, -0.050843, -0.048672, -0.063206, -0.095310, -0.334986, -0.098777, 0.126976, 0.093356, 0.105350, 0.065077, 0.064425, 0.091677, -0.078136, -0.098449, -0.062690, -0.229549, -0.251812, -0.073945, -0.332777, -0.277130, -0.300887, -0.305161, -0.407852, -0.391767, -0.464194, -0.249838, -0.330513, -0.197378, 0.029268, -0.238250, 0.067503, 0.005802, -0.283290, -0.411203, -0.258686, -0.059685, -0.197774, -0.326047, -0.288589, -0.537018, -0.737292, -0.267911, -0.050675, -0.052916, -0.318910, -0.381758, -0.152476, -0.072732, -0.032264, -0.010566, -0.020952, -0.056374, -0.038598, -0.059000, -0.573678, -0.183513, -0.188403, -0.154183, 0.110022, 0.054084, 0.046276, -0.076760, -0.106039, -0.196977, -0.588203, -0.177073, -0.118259, -0.593738, -0.777778, -0.016084, -0.069550, 0.231268, -0.077911, -0.117862, 0.006388, -0.031295, -0.452729, -0.541165, -0.513274, -1.075321, -0.173146, -0.149386, 0.294486, 0.202808, 0.169206, 0.101752, 0.256096, 0.030303, -0.445677, -0.786129, -0.903662, -0.716590, -0.585546, -0.333958, -0.328336, -0.020250, 0.053030, 0.371407, 0.510495, 0.499459, -0.315447, -0.579268, -0.457911, -0.481538, -0.671031, -0.657934, 0.038100, -0.406242, -0.314008, 0.108747, 0.264120, 0.346782, 0.070509, -0.427206, -0.245295, -0.346865, -0.343127, -0.181050, -0.079241, -0.039412, -0.055034, -0.301910, 0.040183, 0.197692, -0.153298, -0.019283, -0.190870, 0.070352, 0.091547, -0.183556, -0.122830, 0.004961, -0.089375, -0.179238, -0.080490, 0.163646, -0.325369, -0.537298, -0.282124, 0.151028, 0.193652, 0.132004, 0.248838, 0.166900, 0.008814, 0.033917, 0.379448, -0.112423, -0.101855, -0.721533, -0.580555, -0.112400, -0.155163, -0.142692, 0.476777, 0.065264, 0.034452, 0.163614, 0.235963, -0.057188, -0.165063, -0.844750, -0.511748, -0.476513, -0.165633, -0.126961, 0.236122, 0.036961, 0.113767, 0.128033, 0.123629, -0.098253, -0.044157, -0.133183, -0.001516, -0.653313, -0.166649, 0.077641, -0.221374, -0.158201, -0.001719, 0.076806, 0.086315, 0.132025, -0.289301, -0.424740, -0.099546, -0.173704, -0.627112, -0.557727, -0.008070, -0.200253, -0.180436, -0.036123, 0.023614, -0.101502, -0.620048, -0.207641, -0.231699, -0.002729, 0.125232, 0.051081, -0.261191, -0.500735, -0.250375, 0.010306, -0.220154, -0.319962, -0.251254, -0.255063, -0.326739, -0.156476, 0.077273, 0.090675, -0.210119, -0.263716, -0.283149, -0.152635, -0.144711, -0.181176, -0.159122, -0.062524, -0.173372, -0.024154, -0.465263, -0.073843, -0.219803, -0.157493, -0.155893, -0.132343, -0.091018, -0.078786, -0.043273, -0.026001, -0.070108, -0.098643, 0.176745, -0.055773, 0.019056, -0.103958, -0.159377, -0.139309, -0.053492, -0.083593, -0.038104, -0.003284, 0.097890, 0.052120, 0.008587, 0.196583, -0.038980, -0.028688, -0.156716, -0.058773, -0.009824, 0.007716, 0.064067, 0.147242, 0.064986, 0.001906, 0.056049, 0.072107, 0.183161, -0.065056, 0.050010, -0.133360, 0.059371, 0.063015, 0.122441, 0.159288, 0.125897, -0.160616, -0.223068, -0.083926, 0.145264, 0.290207, 0.123949, -0.009172, -0.066452, 0.174300, 0.199634, 0.194134, 0.184566, -0.092719, -0.444674, -0.293443, -0.065572, 0.153829, 0.251362, 0.144163, -0.193681, 0.074358, 0.056837, 0.187773, 0.193872, 0.118668, -0.346517, -0.427472, -0.173026, -0.044618, 0.098297, 0.169918, 0.173547, -0.132771, -0.009345, -0.000122, 0.076196, 0.202887, 0.016009, -0.311025, -0.231798, -0.071369, 0.035944, 0.055545, 0.076749, 0.069288, -0.238268, -0.004073, -0.027376, 0.069965, 0.065822, 0.046184, -0.128322, -0.074666, -0.029907, -0.008251, 0.053183, -0.051391, -0.102584, -0.127405, -0.014265, -0.029021, 0.050657, 0.036954, -0.032794, -0.067100, -0.058033, -0.042093, -0.072598, 0.009134, -0.106021, -0.178005, -0.167522, -0.042331, 0.028865, 0.046955, 0.076223, 0.059782, 0.038713, -0.013310, -0.037417, -0.092248, -0.083063, -0.214532, -0.367420, -0.110217, -0.228781, -0.100846, -0.073599, -0.169168, -0.139496, -0.100724, -0.098008, -0.236749, -0.375041, -0.320902, -0.081275, -0.320818, 0.001003, -0.012451, 0.053748, 0.031194, 0.038858, 0.053147, 0.122907, 0.034870, -0.091151, -0.284272, -0.237187, -0.014531, -0.026014, 0.094648, 0.240210, -0.034364, 0.064528, 0.099877, -0.045570, -0.136942, 0.299933, 0.139525, -0.379504, -0.467715, -0.046049, -0.116973, -0.019557, -0.227623, -0.258499, -0.389036, -0.591438, -0.394973, -0.232342, -0.245049, -0.398178, -0.127002, -0.175186, -0.403053, -0.291463, -0.642651, 0.107998, -0.296031, -0.758029, -0.653489, -0.268913, -0.328187, -0.239165, -0.002182, -0.286237, 0.200501, -0.022232, -0.210410, 0.218427, -0.163915, -0.333570, -0.456195, -0.393909, -0.252236, -0.328473, -0.095058, -0.091211, -0.110635, -0.353794, -0.623977, -0.734560, 0.268064, -0.061787, -0.673288, -0.728933, -0.564875, -0.384357, 0.276227, 0.313622, -0.215437, -0.171469, -0.261399, -0.409424, -0.586791, -0.219992, -0.214327, -0.884271, -1.174704, -0.873863, -0.579610, -0.414320, -0.399553, -0.322337, -0.135018, -0.309418, -0.270536, -0.553294, -0.988768, -0.436986, -0.226744, -1.067589, -0.864632, -0.704250, -0.894257, -1.013349, -0.721090, -0.217228, -0.225132, -0.192668, -0.442301, -0.652412, -0.235376, -0.237129, -0.532108, -0.423700, -0.662271, -0.468451, -0.074806, 0.054739, -0.161081, -0.139906, 0.167948, 0.000026, -0.180475, -0.226088, -0.454183, -0.225844, -0.106046, -0.149775, 0.106327, 0.118038, -0.193589, -0.062935, -0.138875, -0.375291, -0.275710, -0.348623, 0.036627, -0.152356, -0.162180, -0.050186, 0.011804, -0.064617, -0.134366, -0.234905, -0.102409, -0.244357, -0.415289, -0.131203, -0.667923, -0.415943, 0.125073, 0.146217, 0.155179, 0.178113, 0.167046, 0.154066, 0.005644, -0.119537, -0.051629, -0.250084, -0.440338, -0.511542, -0.353568, -0.256302, 0.037514, -0.176605, -0.046366, -0.054112, -0.028288, -0.155881, -0.602792, -0.842905, -0.408580, -0.160976, -0.090562, -0.006319, -0.225971, -0.120832, -0.262152, -0.120917, -0.204643, -0.160212, -0.163620, -0.367377, -0.230852, -0.093259, -0.126908, -0.060606, -0.305954, -0.168830, -0.208987, -0.122935, -0.116547, -0.029670, 0.044846, -0.000417, -0.077517, -0.021606, -0.361090, -0.179992, -0.158246, -0.363532, -0.063014, -0.183949, -0.020446, -0.045367, 0.009495, -0.045752, 0.121882, 0.060107, 0.023271, -0.153589, -0.360552, -0.027957, -0.269938, 0.086747, -0.075794, 0.055141, -0.012692, 0.035340, 0.055897, 0.051328, 0.107188, 0.091213, 0.055932, -0.168064, 0.072100, -0.188044, 0.057812, -0.100910, 0.058730, 0.045211, 0.002770, -0.022896, 0.068442, 0.171376, 0.163019, 0.289341, -0.034038, -0.043901, -0.022903, 0.175213, 0.089736, 0.180631, -0.032511, -0.260088, -0.167743, 0.060631, 0.115707, 0.207637, 0.317915, -0.171122, -0.095144, 0.071343, 0.132071, 0.256564, 0.165439, -0.075500, -0.397786, -0.202355, 0.014971, 0.041028, 0.175394, 0.219501, -0.181031, -0.119120, 0.004611, 0.043111, 0.272128, 0.041682, -0.212923, -0.245692, -0.023050, -0.010612, 0.049685, 0.060094, 0.122663, -0.099361, -0.209324, 0.070394, 0.041212, 0.198682, 0.075445, -0.074689, -0.140711, 0.010233, -0.015956, 0.113649, 0.007821, -0.076980, -0.116732, -0.173424, 0.027958, -0.023003, 0.076643, 0.136215, 0.075695, -0.117934, -0.038607, -0.080482, -0.096532, 0.066324, -0.015263, -0.073464, -0.110341, -0.169042, 0.043269, 0.045208, 0.062581, 0.071504, -0.011501, -0.074700, -0.179754, -0.062235, -0.007541, -0.181046, 0.041549, -0.170501, -0.323034, -0.045399, 0.003913, -0.000952, -0.034989, -0.064563, -0.250625, -0.129276, -0.181109, 0.005259, -0.107586, -0.415445, -0.122935, -0.260854, -0.344618, -0.336116, -0.464900, -0.285137, -0.443290, -0.234855, -0.193975, -0.288830, -0.380037, -0.014633, -0.093111, -0.151261, -0.120948, -0.241363, -0.264127, -0.297415, -0.160901, -0.051808, -0.241582, -0.344934, -0.419317, -0.516340, -0.555800, -0.255793, -0.182941, -0.304314, -0.255997, -0.320343, -0.167898, -0.093989, 0.092268, -0.020928, -0.061892, 0.102070, -0.079110, -0.058036, -0.700471, -0.185629, -0.173242, -0.278706, -0.162023, -0.122317, -0.063915, 0.130711, 0.109844, 0.088621, 0.141708, 0.253426, 0.500919, 0.105923, 0.153386, -0.028146, -0.275138, -0.119284, -0.082094, -0.152513, 0.007825, 0.243164, 0.469002, 0.365078, 0.217695, 0.258524, -0.037825, 0.238138, 0.032702, -0.356518, -0.137074, -0.140345, -0.172348, -0.332156, -0.301912, 0.031516, 0.114683, 0.313636, 0.201639, 0.107766, 0.086239, -0.085096, -0.280795, 0.058477, -0.092606, -0.062174, -0.337633, -0.490817, -0.474071, -0.119824, 0.116131, 0.391007, 0.242275, -0.177186, -0.304897, -0.522196, -0.073455, -0.083232, -0.209013, -0.219758, -0.524470, -0.560780, -0.311410, -0.101300, 0.275045, 0.148786, -0.160777, -0.149831, -0.548360, -0.194836, -0.096407, 0.118239, -0.140236, -0.458577, -0.322540, -0.183946, -0.297370, 0.111157, 0.140196, -0.069992, -0.288233, -0.205761, -0.068248, 0.174430, 0.335256, 0.145674, -0.173321, -0.177430, -0.262587, -0.178949, -0.044308, -0.078867, 0.117883, -0.203401, -0.041845, -0.224716, 0.116465, 0.367206, 0.228258, -0.179828, -0.326334, -0.279157, -0.341474, -0.200625, -0.227433, -0.138738, -0.237326, -0.223448, 0.002258, 0.186265, 0.249243, 0.089677, -0.130443, -0.386379, -0.459885, -0.350895, -0.156616, -0.227396, -0.123859, -0.174818, -0.185280, 0.065939, 0.306758, 0.108167, 0.201866, 0.045632, -0.149398, -0.314719, -0.573051, 0.011835, -0.222024, -0.046689, -0.115126, -0.286296, -0.218662, -0.105730, -0.131966, -0.238010, -0.108216, -0.225317, -0.138734, -0.358254, -0.265950, -0.281969, 0.043352, -0.046664, -0.204926, -0.448984, -0.293739, -0.255986, -0.375666, -0.236913, -0.595351, -0.567626, -0.268011, -0.126337, -0.191353, 0.126392, -0.377737, -0.379815, -0.235060, -0.168290, -0.122331, -0.118872, -0.185305, -0.370334, -0.288282, 0.089422, -0.268030, -0.145766, -0.164056, -0.149072, -0.098707, -0.288965, -0.135321, -0.105483, -0.207317, -0.143359, -0.022124, 0.213916, -0.049189, -0.372933, -0.131784, -0.062697, -0.066577, -0.036764, -0.226375, -0.036065, -0.189125, -0.068099, -0.118959, -0.020744, 0.143169, 0.252506, -0.059987, 0.031249, 0.107698, 0.055302, 0.076698, -0.050114, 0.100641, 0.164039, 0.044038, 0.095486, 0.249171, 0.556689, 0.676403, 0.458567, -0.090528, 0.008964, 0.087782, 0.320461, 0.135056, 0.339703, -0.124115, -0.240549, 0.379357, 0.421339, 0.539971, 0.718554, 0.635840, -0.271462, -0.234313, 0.184085, 0.450086, 0.209762, 0.363693, -0.040653, -0.358951, 0.349003, 0.555440, 0.395973, 0.496035, 0.589080, -0.502682, -0.329033, 0.168826, 0.372552, 0.320545, 0.267592, -0.265295, -0.152083, 0.297403, 0.296024, 0.382343, 0.109479, 0.043044, 0.032026, -0.260669, 0.031783, 0.132083, 0.272932, 0.188890, -0.225950, 0.113599, 0.242085, 0.164951, 0.236987, -0.009196, -0.133796, -0.218396, -0.249193, 0.019284, -0.003534, 0.175861, 0.244424, -0.024042, -0.204903, 0.074941, -0.222008, -0.041781, -0.394104, -0.445875, 0.148930, -0.177609, 0.084246, 0.025267, 0.022534, 0.211689, -0.163817, -0.713640, -0.794006, -0.891827, -0.637079, -0.917498, -0.605707, 0.122239, -0.659620, -0.224668, 0.161859, -0.005639, -0.133752, -0.212937, -0.846871, -1.294057, -1.136443, -0.883564, -0.598574, -0.660843, 0.049693, -0.202682, -0.307208, -0.645576, -0.496725, -0.730938, -0.448159, -0.654710, -0.937736, -0.746907, -0.509506, -0.162559, -0.324265, -0.062796, 0.198654, 0.036841, -0.185533, -0.111661, -0.206136, -0.116954, -0.147298, -0.240600, -0.133081, -0.184039, -0.351370, -0.121465, -0.042035, 0.128220, -0.099848, -0.229603, -0.220099, -0.233631, -0.146651, -0.159203, -0.147729, -0.132562, -0.109260, -0.187359, -0.219781, -0.124614, -0.129579, -0.350484, -0.179164, -0.205999, -0.119091, -0.070439, 0.013417, -0.020452, 0.055752, 0.017747, 0.007357, -0.134217, -0.370328, -0.056871, -0.297618, -0.093744, -0.141677, -0.030941, -0.039936, 0.012225, 0.057084, 0.090190, 0.077118, 0.095292, 0.213256, -0.049760, 0.015082, -0.225329, -0.025345, -0.041957, -0.004692, 0.047570, 0.097940, 0.109564, 0.149951, 0.210467, 0.123234, 0.177048, -0.104435, 0.032435, -0.150504, 0.144691, 0.046761, 0.057995, 0.018762, -0.065399, -0.147368, -0.057603, 0.104510, 0.168360, 0.200888, -0.024591, -0.061075, -0.050606, 0.165205, 0.142082, 0.101818, -0.010975, -0.350225, -0.412453, -0.163793, 0.038837, 0.194962, 0.246493, 0.122021, -0.179970, 0.088326, 0.124277, 0.202783, 0.152135, -0.153161, -0.559136, -0.440834, -0.218418, 0.038729, 0.104096, 0.133598, -0.028742, -0.147459, 0.048439, 0.053088, 0.210669, 0.096148, -0.186239, -0.430951, -0.269743, -0.058499, 0.036040, 0.045320, 0.085394, 0.152859, -0.229949, 0.059585, 0.035374, 0.109282, 0.184751, -0.056755, -0.209788, -0.092882, -0.045907, -0.025340, 0.007609, -0.061594, -0.042462, -0.153005, -0.017474, 0.048738, 0.074752, 0.067355, 0.059134, -0.008957, -0.064400, -0.102620, -0.085403, -0.000144, -0.084903, -0.004049, -0.217787, -0.121694, 0.060582, 0.097538, 0.117714, 0.110377, 0.068601, 0.007903, -0.038198, -0.107258, -0.016003, -0.168697, -0.438704, -0.151475, -0.224554, -0.116710, -0.054702, -0.047946, -0.024050, 0.001220, -0.008703, -0.136400, -0.271836, -0.403552, -0.079055, -0.106828},
  {0.005836, -0.013176, -0.317613, -0.310056, -0.103393, -0.032455, 0.055999, -0.116916, 0.043353, -0.094417, -0.007736, -0.269971, -0.225040, 0.142730, 0.114913, -0.411142, 0.145906, 0.191376, 0.120292, 0.093955, -0.007272, 0.075564, -0.023693, 0.062221, 0.124069, -0.109820, 0.039860, 0.026086, -0.051526, 0.127789, 0.118045, -0.001838, -0.083254, -0.249335, -0.250542, -0.102662, 0.030995, -0.035530, 0.069831, -0.133501, -0.284793, -0.168549, -0.082435, -0.014532, -0.118538, -0.239333, -0.357584, -0.225832, -0.134947, -0.054289, -0.099817, -0.332670, -0.118218, -0.303146, -0.007745, -0.059081, 0.074789, -0.097281, 0.008306, -0.077979, -0.054909, -0.196061, -0.153955, -0.336486, -0.253997, -0.100643, -0.238182, -0.047326, -0.044644, -0.081196, -0.000408, 0.114092, 0.108873, -0.027910, 0.017514, -0.279148, -0.205553, 0.002504, -0.115415, 0.154929, -0.004626, -0.022264, -0.136714, 0.059271, 0.200589, 0.049955, -0.272617, -0.267429, -0.101739, 0.047754, 0.084640, 0.040947, 0.020132, -0.178777, 0.052273, -0.177411, 0.241697, 0.164633, -0.028123, -0.287482, -0.303159, -0.183645, -0.179931, 0.068393, -0.044276, -0.246128, -0.300684, 0.018310, -0.084019, 0.034314, 0.203232, -0.207753, -0.398094, -0.092391, 0.135183, 0.152402, -0.131542, -0.109343, -0.359872, -0.116811, 0.057496, 0.045042, 0.177109, 0.145528, -0.172999, 0.037940, 0.224293, 0.103520, 0.178472, -0.003746, -0.102582, 0.179171, 0.138074, 0.121475, 0.104668, 0.005271, -0.094196, -0.009422, 0.249052, 0.131451, 0.125566, 0.057923, 0.040220, -0.111885, 0.070253, 0.125732, 0.073079, 0.101782, -0.092614, -0.025825, -0.071813, 0.225794, 0.213644, -0.036865, -0.155292, -0.139089, -0.133359, -0.392094, -0.025432, -0.011199, -0.251901, -0.037693, -0.041450, -0.171570, -0.126107, -0.016938, -0.054679, -0.188699, 0.159417, 0.156712, -0.220541, -0.476906, -0.315102, -0.229335, 0.023586, -0.056451, -0.100702, -0.116962, -0.061143, -0.527250, -0.569757, -0.459573, 0.156974, 0.263710, -0.030487, -0.157365, -0.122616, -0.087972, 0.095794, 0.311101, 0.097726, 0.234146, 0.224612, 0.133479, -0.057282, -0.230560, -0.181961, -0.563952, -0.736970, -0.561844, -0.351476, -0.336428, -0.279597, 0.210150, 0.255472, 0.232555, -0.512280, 0.018310, -0.124972, -0.249000, -0.192491, -0.373806, -0.485535, -0.637546, -0.218357, -0.144071, -0.242923, -0.053540, -0.023793, -0.240308, -0.290843, -0.194932, -0.712844, -0.185924, -0.223882, -0.172950, -0.148603, 0.053616, -0.552129, -0.685042, 0.220852, 0.289309, -0.025007, -0.268150, 0.049201, -0.044949, -0.073114, -0.035549, 0.082484, 0.353659, 0.397044, -0.715164, -0.651496, 0.046746, -0.131300, 0.229372, -0.093587, 0.157120, 0.024420, -0.112669, 0.294175, 0.490234, 0.483115, 0.011783, -0.656506, -0.104969, -0.107350, -0.184776, 0.026409, -0.286358, -0.035616, 0.003008, -0.091680, -0.192042, 0.112492, -0.516093, -0.526957, -0.110849, -0.020761, -0.271724, -0.282349, 0.241736, -0.127712, -0.159849, -0.689808, -0.006396, 0.219421, -0.124355, -0.691913, -0.274369, 0.538440, -0.077007, -0.252774, 0.125253, 0.075236, -0.102480, -0.151641, 0.459306, 0.599941, 0.430470, -0.051139, -0.195119, 0.076674, -0.307433, -0.630754, -0.185001, -0.104318, -0.727813, -0.202513, -0.393126, 0.346055, 0.144748, 0.069169, -0.284187, -0.643915, -0.378094, -1.049684, -0.285486, -0.106835, 0.074418, -0.119880, 0.240008, -0.039230, -0.048229, 0.301561, 0.527575, 0.020982, -0.168903, -0.569989, -0.233314, 0.138395, -0.072067, 0.435105, -0.433722, 0.040441, -0.037246, -0.288901, 0.208862, 0.083900, 0.190142, 0.173117, 0.168545, 0.173049, -0.132279, -0.000328, -0.152441, -0.317056, -0.286389, 0.178873, 0.150879, -0.311715, -0.060176, 0.074974, -0.087707, 0.058855, 0.192307, 0.014144, -0.149450, -0.117715, -0.477625, -0.396098, 0.218683, -0.005066, -0.058917, -0.072655, 0.117971, 0.149534, 0.129061, 0.341664, 0.083732, 0.042562, 0.210795, 0.102842, -0.110669, 0.046078, -0.040372, 0.021932, -0.172353, -0.227729, -0.089101, -0.137842, 0.012503, -0.123385, 0.124199, 0.131500, 0.076359, -0.251783, -0.063183, 0.016427, -0.141185, -0.170497, -0.304736, -0.338324, -0.397724, -0.112626, -0.050920, 0.039529, 0.050362, 0.044708, -0.427090, -0.069723, -0.036623, -0.092556, -0.145274, -0.216175, -0.373446, -0.227840, 0.114691, 0.127354, -0.018075, 0.020332, -0.098805, -0.272319, -0.104060, 0.007168, -0.078921, -0.024781, -0.139464, -0.317930, 0.122795, 0.302256, 0.112515, -0.038279, -0.033336, 0.021246, 0.066774, -0.106981, 0.099388, 0.015481, -0.018270, -0.105991, -0.123940, 0.208293, 0.449844, 0.012942, -0.216997, -0.108425, -0.204542, 0.045323, 0.152257, 0.073736, -0.129905, -0.051617, -0.173210, -0.111109, 0.211176, 0.402423, -0.211175, -0.313121, -0.191323, -0.286068, -0.049971, 0.055348, -0.075901, -0.192740, -0.249373, -0.291862, -0.132996, 0.248254, 0.032269, -0.307010, -0.154923, -0.122077, -0.129403, -0.007064, -0.095276, -0.187151, -0.069855, -0.114184, -0.097603, 0.008629, 0.094393, -0.189563, -0.003763, -0.012208, 0.035189, 0.027251, 0.106324, -0.072943, 0.064952, 0.116133, 0.127361, 0.220501, 0.040979, -0.208461, -0.084559, 0.050679, -0.048294, 0.160536, 0.014060, 0.064184, -0.109192, 0.236579, 0.078160, 0.041442, 0.019988, -0.196463, -0.156413, -0.013840, 0.047513, 0.009248, 0.073399, -0.227836, 0.012495, -0.216885, -0.102580, -0.122936, -0.116604, -0.085835, -0.240704, -0.144205, -0.199888, -0.146871, -0.155630, -0.110553, -0.203615, -0.072877, 0.019088, -0.019963, -0.132991, -0.203426, -0.085768, 0.019736, -0.631659, -0.534477, -0.110393, -0.113491, -0.099633, 0.002466, -0.031655, 0.187418, 0.068712, 0.107038, -0.712994, -0.117096, -0.314121, -0.886171, -0.352364, -1.014311, -0.413209, -0.477699, -0.159930, -0.057967, 0.158774, 0.398971, 0.136433, -0.077991, -0.335700, -0.710095, -0.833351, -0.914784, -1.086260, -0.899303, -0.788423, -0.384255, -0.198743, -0.205307, 0.023906, -0.496186, -0.235923, -0.226156, -0.663891, -0.860490, -1.220280, -1.038903, -1.055190, -0.504255, -0.367015, -0.666555, -0.180561, -0.512744, -0.124273, -0.000893, 0.094894, -0.340496, -0.530661, -0.533958, -1.117769, -0.633891, -0.070930, -0.360856, -0.492876, -0.077570, -0.367636, -0.386347, -0.107455, 0.380393, -0.095118, -0.685319, -0.946785, -0.603050, 0.130864, 0.199957, 0.006849, -0.119019, -0.307265, -0.020404, -0.236493, 0.049595, -0.050245, -0.435850, -0.661243, -0.225585, -0.129298, 0.149276, -0.154164, 0.115447, -0.259176, 0.227063, 0.358896, 0.123217, 0.325777, -0.237443, -0.521486, -0.279562, -0.155736, -0.605175, -0.323807, -0.485983, -0.277356, 0.009694, -0.186347, -0.127985, -0.088042, 0.045658, -0.476186, -0.681128, 0.122970, -0.447990, -0.705094, -0.057118, 0.043628, -0.035423, -0.601166, -0.230866, -0.185238, 0.010283, -0.044994, -0.234924, -0.201482, -0.175005, -0.161822, 0.014375, 0.264668, 0.228431, -0.047677, 0.179361, -0.157956, 0.146361, 0.087718, 0.150538, 0.137273, -0.230990, -0.517710, -0.064257, 0.379974, 0.275220, 0.104111, 0.211222, 0.230087, -0.273474, 0.230573, 0.200142, 0.118230, 0.075751, -0.189568, -0.100158, 0.097222, 0.362307, 0.312174, -0.010655, -0.460842, 0.358617, -0.415469, -0.493963, -0.152148, -0.156192, -0.186844, -0.198411, 0.014785, -0.243671, -0.143993, -0.035496, -0.240120, -0.302160, -0.049572, 0.167183, -0.194950, -0.334605, -0.318533, -0.176764, 0.008223, 0.063211, -0.007801, -0.089834, -0.041025, -0.330998, -0.362638, -0.336708, 0.076966, 0.156656, 0.047417, -0.066760, 0.085986, 0.168789, 0.243994, 0.218239, 0.175134, 0.313263, 0.218348, 0.048834, -0.209080, -0.051861, 0.075670, -0.110974, -0.229744, -0.135245, 0.035568, -0.030001, -0.101573, 0.019356, 0.027761, 0.057026, 0.037309, -0.094431, -0.102689, -0.073252, -0.122637, -0.235917, -0.077635, -0.094214, -0.079677, -0.148219, -0.180820, -0.167158, 0.051638, -0.014509, -0.198462, -0.079348, -0.154226, -0.180260, -0.138544, -0.192094, -0.034151, 0.084376, 0.042495, -0.388309, -0.105958, 0.218305, -0.088147, -0.009192, -0.092918, 0.048160, -0.111595, -0.076960, -0.134975, 0.288457, 0.205515, -0.100746, -0.374169, -0.014759, -0.110185, -0.059461, 0.138999, 0.123966, 0.086523, -0.237780, 0.051732, -0.080861, 0.430993, 0.241415, -0.073853, -0.262471, -0.042408, -0.101280, -0.229205, 0.097341, 0.165054, -0.193839, -0.336305, -0.067031, -0.079852, 0.202043, 0.192834, -0.409757, -0.253800, -0.174807, -0.204411, -0.005961, -0.039472, -0.102438, -0.475000, -0.231985, -0.134310, -0.051695, 0.014509, 0.080700, -0.368108, -0.179134, -0.073231, -0.213204, 0.035875, 0.006730, -0.060459, 0.109518, 0.040202, 0.065605, -0.016051, -0.052381, -0.238435, -0.244943, -0.166774, -0.087878, -0.041894, 0.129229, -0.135228, -0.121953, 0.262090, 0.091881, 0.008996, 0.009876, -0.284066, -0.028343, -0.146836, 0.086869, 0.192179, 0.057457, 0.087076, 0.272859, -0.087030, 0.054529, 0.075122, 0.035038, 0.040789, 0.001135, -0.056088, 0.058799, 0.343968, 0.261839, 0.291771, -0.343612, 0.276562, -0.248264, -0.076927, -0.031925, 0.018298, -0.155179, -0.042802, -0.145237, 0.050567, -0.228622, 0.078568, -0.194297, -0.092875, -0.151388, 0.180723, 0.129109, -0.439858, -0.587600, -0.216920, -0.234662, -0.027393, -0.042228, -0.279674, -0.172937, -0.112508, -0.400390, -0.465293, 0.168413, 0.191222, 0.203816, 0.112225, 0.025619, 0.077730, -0.036996, 0.133201, 0.035218, -0.053371, 0.208063, 0.086559, -0.070023, -0.112113, 0.049787, -0.041795, 0.099950, -0.071729, 0.171141, -0.185779, -0.226542, -0.278244, -0.200748, -0.044123, 0.088260, -0.256967, -0.124997, -0.465479, 0.005945, 0.333915, 0.301561, 0.082484, -0.164523, -0.021389, -0.411315, -0.502695, -0.378440, 0.063671, -0.268730, 0.137793, -0.133810, -0.181474, -0.149987, -0.323858, -0.521439, -0.244950, 0.453049, 0.073989, -0.144184, -0.063449, 0.267114, -0.150877, 0.095877, 0.101031, 0.264391, 0.098682, -0.351495, -0.792377, -0.285656, 0.399893, 0.037334, -0.378704, -0.179852, 0.047800, -0.108594, 0.084529, -0.048131, -0.168107, 0.131310, -0.211838, -1.142443, -0.207560, 0.272508, -0.095565, -0.473580, -0.369205, -0.460518, -0.162871, 0.098461, 0.127898, -0.235845, -0.215358, -0.403583, -0.974404, -0.084203, 0.193247, -0.240631, -0.492627, -0.177480, -0.245896, -0.044128, 0.228597, -0.545780, -0.651902, -0.249974, -0.091838, -0.241110, -0.282017, 0.113866, -0.095248, 0.046435, 0.255990, 0.038125, 0.123830, -0.036419, 0.302625, 0.284153, 0.244668, 0.290075, -0.061797, -0.286546, 0.081251, 0.248998, 0.442606, 0.434004, 0.007885, 0.303142, 0.042736, 0.100092, 0.088844, -0.211972, -0.648941, -0.579486, -0.043370, 0.224528, 0.198273, 0.208050, 0.457989, -0.271558, -0.109249, -0.105473, 0.057922, -0.028818, -0.231801, -0.033463, 0.269231, 0.136160, 0.197838, 0.281017, 0.008297, 0.130310, -0.380273, -0.190484, -0.072660, -0.034414, -0.032265, 0.052598, 0.123318, 0.102865, -0.033773, 0.040856, -0.133062, -0.052923, -0.071257, -0.311046, -0.283428, 0.162089, -0.234330, -0.395102, -0.209333, -0.173628, 0.076423, 0.136397, -0.102478, -0.056035, -0.216482, -0.406275, -0.164830, -0.236238, 0.189139, 0.198839, -0.178990, -0.067173, 0.341835, 0.314328, 0.723626, 0.445010, 0.741497, 0.497911, 0.336970, -0.079213, -0.106733, -0.148416, 0.090288, -0.369212, -0.263642, 0.211448, 0.293227, 0.198715, 0.396114, 0.959779, 0.707690, 0.769022, -0.357013, 0.155401, -0.239448, -0.220192, -0.231306, -0.413347, -0.049386, 0.090384, 0.042880, 0.240220, 0.168243, 0.147227, 0.123153, -0.144781, -0.009546, -0.241907, -0.361695, -0.129508, -0.466514, -0.103111, -0.055371, 0.202300, 0.090990, -0.361259, -0.142670, 0.385250, 0.092677, 0.360770, -0.149170, -0.238190, -0.089825, -0.267504, -0.058665, 0.267229, 0.299297, 0.036343, -0.167539, 0.253985, 0.111983, 0.117450, 0.084869, 0.091198, -0.018886, -0.120529, -0.089066, -0.001676, 0.557981, 0.441650, 0.116298, 0.162613, 0.291936, -0.279568, -0.088637, 0.048610, 0.139753, -0.187023, -0.422911, -0.070410, 0.072824, 0.438555, 0.579801, -0.312459, -0.119098, -0.185699, -0.304999, 0.213083, 0.334199, -0.217616, -0.588971, -0.406326, -0.123424, -0.072470, 0.403170, 0.503237, -0.461992, -0.380057, -0.483775, -0.468535, 0.165868, 0.285247, -0.156519, -0.250637, -0.254742, -0.037671, -0.137380, 0.254070, 0.119291, -0.662955, -0.490223, -0.683477, 0.025247, 0.042037, 0.363708, -0.196214, 0.079376, -0.043229, 0.105035, 0.147289, 0.188381, 0.142060, -0.018764, 0.311665, -0.167605, 0.110355, 0.002825, 0.186695, -0.699268, 0.003679, 0.086192, 0.261102, 0.360404, 0.278834, 0.338700, 0.203043, 0.519976, 0.355593, -0.084708, 0.157945, 0.087266, -0.279679, -0.523361, 0.089516, 0.050934, -0.261760, 0.012799, -0.224945, -0.071706, -0.021938, -0.004338, -0.243616, 0.172373, -0.033193, 0.202479, 0.064956, -0.521732, -0.385037, -0.104836, 0.021672, 0.288053, 0.119448, -0.043236, -0.070579, -0.171956, -0.476814, -0.256909, 0.285473, 0.071980, -0.017202, -0.174992, -0.026155, 0.039823, 0.076033, 0.025007, -0.083348, 0.129155, 0.104658, -0.013749, -0.234893, 0.028407, 0.163075, 0.000104, -0.202695, -0.085327, -0.007802, -0.053828, -0.060944, -0.097808, 0.014028, 0.100968, -0.002374, -0.180443, -0.109222, -0.018691, -0.086841, -0.212697, -0.178253, -0.087244, -0.135946, -0.094895, -0.136624, -0.050795, -0.001383, -0.150349, -0.301516, -0.104544, -0.141987, -0.136844, -0.143796, -0.150694, -0.096549, 0.105631, 0.154128, -0.001776, -0.058030, -0.048373, -0.145402, -0.294536, -0.071946, -0.115185, -0.179947, -0.182271, -0.166163, 0.007645, 0.328175, 0.293898, 0.016056, -0.049753, 0.013839, 0.099650, -0.024171, 0.030841, 0.074651, -0.169947, -0.100120, -0.219924, 0.194370, 0.331055, 0.303061, -0.115293, -0.126273, -0.065136, -0.045736, 0.069849, 0.131488, -0.032408, -0.143420, -0.059799, -0.061399, 0.231114, 0.375968, 0.128111, -0.287541, -0.266482, -0.221143, -0.197385, 0.005700, -0.035908, -0.321922, -0.340985, -0.176037, -0.127874, 0.130417, 0.358797, 0.010110, -0.331173, -0.214965, -0.127555, -0.056366, -0.059022, -0.209038, -0.349704, -0.224281, -0.087606, -0.038275, 0.172739, 0.161365, -0.092765, -0.076648, -0.043274, 0.054252, 0.039466, 0.004154, -0.097142, 0.107634, 0.032551, 0.097206, 0.109201, 0.050497, -0.007406, -0.049728, 0.136719, 0.183830, 0.070519, 0.069142, 0.136513, -0.115107, 0.067020, 0.067126, 0.010837, -0.039106, -0.211077, -0.133995, -0.028685, 0.128739, 0.102502, 0.065634, -0.356745, 0.136422, -0.225057, -0.115967, -0.161228, -0.134598, -0.216099, -0.206338, -0.191703, -0.111767, -0.200120, -0.032220, -0.160597, -0.361958, -0.174969},
  {-0.098166, -0.191953, -0.273279, 0.124329, -0.099886, -0.139900, 0.020846, -0.009522, -0.293505, -0.156192, -0.227471, -0.088232, -0.031159, -0.382946, -0.270763, -0.191993, 0.158044, 0.117659, 0.159853, 0.093251, 0.073065, -0.065612, -0.018011, -0.207421, -0.277548, -0.201979, 0.071155, -0.249408, -0.156616, -0.048994, 0.125997, 0.023360, -0.006937, 0.133882, 0.130863, 0.056135, -0.009868, -0.085364, -0.125515, 0.061081, 0.063714, -0.046478, 0.067790, 0.068633, 0.175328, 0.145312, 0.043178, -0.026846, -0.044518, -0.073489, 0.026530, -0.094117, -0.118682, 0.053384, -0.057972, 0.024757, 0.007233, -0.040701, -0.038190, 0.040801, 0.056266, -0.073016, -0.049084, 0.107310, -0.204176, -0.243205, -0.035734, -0.093924, -0.183410, -0.224033, -0.254106, -0.261758, -0.117351, -0.047327, -0.171462, -0.135586, 0.149918, -0.132802, -0.412925, -0.390969, -0.349274, -0.338772, -0.242135, -0.113243, -0.147259, -0.137224, -0.163238, -0.228482, -0.169515, 0.016566, 0.481177, -0.095212, -0.106704, -0.169423, -0.091921, -0.020553, 0.014781, 0.047576, -0.011127, -0.100087, -0.063566, -0.056024, 0.271946, 0.540364, 0.000457, 0.164671, 0.108842, 0.067929, 0.091876, 0.129636, 0.058190, -0.000123, -0.084185, -0.083270, 0.078266, 0.132526, 0.279593, -0.077872, 0.034453, 0.133077, 0.043320, 0.144269, 0.053037, 0.073782, 0.138772, 0.150523, 0.129898, 0.222812, 0.136861, 0.103378, 0.056371, 0.102525, 0.076319, 0.056862, 0.051751, -0.093367, -0.077488, 0.085768, 0.169076, 0.224626, 0.064105, 0.124458, 0.237537, -0.068189, -0.123691, 0.039262, -0.049396, -0.040250, -0.069622, -0.136065, -0.033280, 0.008950, 0.199129, 0.107768, 0.032170, 0.017726, -0.116332, -0.353952, -0.366756, -0.371355, -0.454975, -0.153280, -0.102339, -0.169516, -0.096204, -0.137794, -0.074827, -0.054276, 0.058165, -0.291410, -0.061644, 0.020421, 0.284697, 0.143573, 0.109195, -0.022498, 0.061605, -0.344049, -0.261690, 0.046282, 0.130912, -0.094143, -0.057285, -0.041741, -0.310742, -0.130277, 0.076024, -0.088434, -0.072544, -0.171309, -0.127811, -0.168463, -0.145887, -0.425526, 0.150188, 0.215438, -0.236585, -0.115414, 0.017699, 0.101214, 0.022102, -0.158536, -0.418693, -0.570301, -0.847564, -1.027066, -0.402746, -0.074251, -0.196735, -0.179205, -0.065121, 0.164793, 0.127170, -0.243865, -0.201635, -0.211151, -0.803865, -0.543918, -0.403155, -0.089926, -0.122886, -0.290102, 0.143923, 0.150394, 0.053168, -0.230081, -0.085647, -0.138744, -0.189038, -0.323053, -0.454394, -0.342215, 0.409171, -0.108929, -0.607358, -0.016409, 0.314181, 0.425463, 0.482237, 0.523223, 0.105864, 0.045581, -0.123598, -0.594299, 0.304979, 0.273375, 0.177881, -0.016710, 0.272685, 0.959476, 0.988720, 0.641929, 0.277890, 0.060028, 0.234488, 0.130359, 0.107097, 0.150948, 0.467196, 0.583584, -0.197124, 0.322917, 0.346857, 0.843663, 0.590691, 0.544815, 0.275318, 0.313495, 0.419368, 0.539422, 0.454723, 0.501226, 0.666929, 0.127013, 0.045183, 0.337180, 0.427142, 0.273120, 0.229065, 0.382913, 0.490390, 0.091966, 0.111195, 0.536728, 0.571088, 0.326038, 0.279224, 0.002985, -0.032890, -0.231038, -0.042684, 0.025153, 0.337829, 0.176443, 0.242361, 0.200332, 0.023953, 0.296695, 0.203120, -0.058344, -0.310206, -0.091515, -0.123915, -0.052582, 0.329638, -0.099848, -0.033974, -0.081052, 0.226034, 0.122537, 0.292522, 0.041305, -0.314879, -0.132023, -0.126710, 0.300637, 0.322745, 0.050076, -0.086745, -0.105812, -0.177096, 0.335133, -0.133078, 0.276778, 0.027277, -0.080694, -0.315056, -0.282034, -0.340035, -0.476091, -0.443917, -0.429626, -0.616615, -0.283573, -0.093719, 0.075260, -0.205923, 0.295100, -0.047418, -0.091701, -0.111864, -0.167418, 0.098386, 0.248649, -0.083724, -0.260396, 0.022610, -0.229604, -0.225804, -0.053046, -0.077981, -0.066645, -0.131320, -0.062196, -0.016009, 0.003193, 0.105878, 0.096118, -0.090235, 0.021644, -0.141440, -0.085360, -0.238738, -0.137103, -0.144602, -0.054878, -0.020771, -0.026319, 0.045666, 0.075785, 0.065178, 0.038590, 0.057884, -0.018395, 0.065398, -0.175628, -0.066925, -0.087754, 0.138358, 0.030625, -0.017824, -0.067639, 0.062639, 0.025186, -0.021259, -0.028597, -0.005049, -0.009384, -0.125993, -0.221456, -0.041101, -0.043467, -0.029363, -0.199915, -0.186787, -0.067003, -0.153672, -0.149759, -0.015739, 0.025196, 0.002809, -0.204883, -0.339269, -0.086311, -0.037853, -0.158814, -0.389094, -0.504826, -0.328249, -0.207806, -0.107186, -0.059145, 0.038516, -0.134298, -0.223717, 0.032280, -0.149084, -0.173341, -0.292844, -0.367145, -0.284225, -0.117042, -0.088839, -0.030481, -0.070868, -0.029505, -0.221273, -0.242864, 0.117162, -0.132371, -0.161981, 0.046553, -0.031232, 0.084755, 0.152577, 0.134255, 0.087544, -0.011716, -0.150837, -0.178629, -0.138082, 0.232039, 0.029856, 0.101902, 0.158590, 0.206212, 0.194927, 0.279952, 0.271929, 0.132341, -0.051751, -0.112012, -0.136173, -0.017387, 0.107806, -0.039898, 0.204841, 0.190591, 0.132670, 0.177796, 0.154324, 0.098451, 0.061466, -0.012848, -0.048820, -0.080136, 0.037074, -0.018566, 0.008026, 0.131490, 0.096996, 0.091797, 0.071936, -0.001262, 0.009974, -0.026671, 0.028830, 0.060412, -0.028298, 0.016168, 0.034807, 0.199560, 0.031099, -0.015832, -0.048385, -0.078213, -0.094967, -0.134010, -0.123573, 0.013755, 0.023370, 0.068179, -0.078631, -0.010783, -0.319540, -0.360413, -0.278197, -0.259650, -0.259532, -0.123194, -0.095781, -0.088406, -0.048430, -0.122905, -0.068343, -0.025975, 0.128146, -0.002739, -0.129198, -0.206758, 0.041020, -0.024515, -0.352577, 0.451115, 0.064161, -0.858859, -0.575749, -0.367101, -0.085134, -0.050916, -0.780010, -0.329416, 0.238403, 0.501784, 0.134874, 0.448121, 0.461425, 0.044784, -0.083989, -0.541091, -0.114661, -0.087001, -0.281465, -0.038772, -0.222875, 0.163044, 0.198975, 0.347928, 0.202461, 0.179168, 0.143057, 0.180032, -0.082592, -0.512446, -0.421531, -0.480149, -0.051825, -0.244682, 0.270697, 0.306205, 0.328253, 0.199441, 0.146384, 0.055108, -0.234205, -0.290204, -0.965743, -0.696826, -0.310045, -0.076747, -0.003038, 0.285527, 0.462598, 0.509014, 0.234386, 0.292405, 0.039457, -0.202835, -0.545502, -0.450304, -0.341285, -0.401659, -0.209095, 0.110954, 0.568596, 0.465678, 0.521957, 0.469607, 0.171580, -0.106975, -0.503993, -0.467686, -0.307621, -0.364579, 0.010614, -0.422176, 0.223970, 0.248845, 0.150065, 0.130035, -0.120537, -0.294896, -0.467724, -0.470152, -0.458435, -0.066085, 0.322493, 0.473151, -0.523361, -0.815201, -0.415839, -0.379537, -0.407432, -0.386088, -0.125737, -0.250025, -0.437655, -0.042984, 0.294849, 0.812337, 0.596499, -0.221437, -0.030635, -0.396861, -0.552557, -0.305091, -0.138899, -0.042372, -0.093199, -0.027298, 0.247717, 0.300511, 0.389744, 0.566896, -0.074965, -0.015278, -0.010560, -0.178512, -0.183283, 0.082256, 0.266849, 0.216947, 0.361453, 0.533411, 0.703909, 0.478846, 0.159247, 0.322603, 0.016603, -0.129119, -0.116431, -0.074119, -0.104762, 0.002689, 0.242155, 0.355823, 0.387379, 0.429608, 0.192153, -0.000818, 0.328810, 0.099435, 0.023528, 0.151096, -0.100159, 0.018855, -0.091221, -0.024367, 0.233617, 0.192298, 0.021023, 0.003968, -0.181185, -0.386260, -0.379865, -0.397724, -0.389278, -0.356138, -0.072527, -0.051097, -0.140545, 0.015808, -0.044148, -0.084754, -0.058999, 0.294466, -0.109223, -0.170131, -0.071922, 0.134277, 0.126991, 0.175295, -0.100661, -0.027030, -0.301952, -0.237570, -0.075659, 0.005111, -0.153068, -0.007348, -0.122292, -0.097723, -0.017799, 0.052354, 0.099974, 0.066850, -0.017750, -0.010388, -0.082987, -0.191849, -0.152250, -0.164215, 0.015224, 0.105307, -0.120138, -0.012672, 0.009228, 0.011982, 0.093595, 0.019767, -0.100251, -0.047723, -0.090280, -0.084514, -0.007125, -0.021018, -0.142059, -0.195036, -0.099919, 0.001765, -0.103704, -0.042229, -0.078146, 0.067983, 0.037892, 0.203872, -0.195761, -0.216858, -0.191822, -0.265919, -0.212573, -0.339666, -0.325423, -0.327882, -0.224976, -0.107161, -0.000607, 0.054029, 0.103022, 0.002753, -0.130231, -0.243912, -0.270592, -0.451303, -0.428824, -0.386344, -0.292376, -0.265892, -0.071564, 0.066905, 0.067311, 0.038109, -0.017088, 0.250024, -0.146537, -0.276996, -0.197737, -0.173316, -0.094557, -0.006477, -0.024931, -0.054412, -0.095633, -0.033490, -0.198092, 0.044198, 0.130830, 0.016495, 0.093064, 0.150287, 0.089707, 0.177337, 0.188253, 0.126186, 0.000826, -0.148806, -0.185981, -0.201915, -0.145915, 0.377811, -0.087059, 0.152782, 0.146405, 0.152224, 0.219288, 0.186968, 0.073145, -0.067296, -0.033243, -0.185996, -0.058863, 0.002579, 0.032934, 0.043399, 0.105624, 0.036197, 0.174791, 0.070382, 0.011377, -0.066136, 0.008338, 0.007986, -0.036844, -0.149252, -0.026107, 0.126616, 0.267743, -0.021168, 0.066525, 0.118609, -0.031345, 0.024178, -0.145087, -0.029723, 0.021292, 0.053949, -0.052580, 0.034979, -0.011668, -0.141338, -0.138770, -0.131008, -0.182056, -0.198251, -0.072100, -0.207159, -0.206676, -0.151814, -0.076526, -0.014208, 0.024723, 0.069508, -0.309675, -0.336779, -0.221948, -0.341252, -0.495174, -0.466514, -0.140901, -0.429073, -0.133904, -0.219403, -0.068515, -0.239457, 0.104079, -0.179249, -0.093964, -0.152853, 0.058692, 0.216515, 0.244852, 0.128250, 0.085630, 0.240256, -0.232709, -0.233477, 0.066166, 0.063537, -0.109380, 0.141876, -0.157557, -0.240302, 0.001868, 0.106311, 0.181447, 0.144114, 0.229128, 0.130289, 0.085479, -0.027415, -0.259415, -0.029746, -0.064179, -0.120298, -0.197673, -0.182237, -0.139897, 0.061021, 0.109236, 0.118349, 0.039504, 0.058685, -0.043136, -0.179830, -0.239063, -0.311736, -0.353442, -0.420394, -0.267503, -0.164557, 0.069507, 0.156623, 0.100681, -0.029963, -0.128002, -0.220092, -0.335219, -0.590626, 0.127291, 0.220503, -0.035578, -0.671319, -0.319889, -0.255568, -0.184223, 0.064679, -0.041418, -0.242794, -0.389297, -0.320951, -0.476069, -0.016483, 0.287702, 0.022723, -0.129373, 0.024692, 0.204851, -0.075101, -0.279621, -0.177808, -0.192297, -0.151888, 0.026329, -0.099325, 0.309913, 0.229068, 0.361043, 0.077813, 0.037753, 0.303511, 0.317418, -0.190412, -0.420268, -0.423249, -0.193116, 0.033942, -0.080291, 0.079824, -0.094829, -0.116605, -0.196029, -0.145833, 0.052875, -0.188695, -0.279436, -0.252270, -0.000968, -0.128559, 0.134589, -0.005623, 0.048791, -0.218521, -0.155784, -0.331715, -0.254323, -0.111589, -0.076170, -0.183163, 0.039062, 0.183764, 0.166019, -0.055359, -0.228579, -0.263194, -0.525628, -0.489692, -0.324334, -0.262734, -0.032787, 0.274104, 0.437936, 0.476085, 0.447925, 0.333178, 0.030411, -0.230657, -0.286343, -0.609610, -0.380983, -0.276993, -0.233626, -0.088127, 0.096322, 0.691407, 0.774315, 0.491975, 0.280952, 0.117852, -0.136262, -0.297227, -0.174827, -0.218790, -0.139658, -0.226737, 0.052740, 0.284150, 0.659457, 0.634551, 0.267523, 0.081134, 0.337419, -0.078099, -0.072819, -0.253124, -0.353498, -0.256878, -0.597746, -0.342762, -0.380051, -0.400362, -0.168193, -0.103879, -0.151989, 0.006792, -0.261493, -0.104342, 0.015842, 0.321147, 0.157485, -0.043572, -0.246552, -0.109268, -0.527306, -0.327330, 0.070357, 0.140704, -0.131327, -0.059250, -0.095131, -0.268212, 0.106614, 0.097684, 0.031043, -0.248976, -0.349105, -0.783187, -1.164142, -0.761517, -0.545272, -0.072740, 0.173614, -0.163924, -0.298082, -0.119616, -0.020289, -0.046842, 0.017079, -0.124723, -0.444214, -0.504638, -0.462639, 0.057771, -0.371467, -0.082760, -0.151962, -0.199675, -0.123016, 0.061817, -0.116641, -0.005459, 0.306638, 0.234052, 0.212868, 0.048544, 0.139481, -0.040487, -0.218263, -0.137536, -0.440094, -0.448702, -0.291417, -0.542124, 0.018979, 0.426126, 0.433687, 0.230208, 0.286111, 0.163897, -0.136465, -0.263082, -0.352367, -0.766674, -0.704949, -0.675738, -0.409993, -0.107664, 0.358640, 0.674690, 0.365607, -0.007356, 0.134585, 0.745693, -0.234989, -0.495417, -0.409297, -0.549775, -0.440300, -0.358666, -0.195664, 0.241078, 0.117326, 0.274759, -0.434142, -0.367184, 0.049686, -0.079395, -0.140592, -0.022939, -0.243570, -0.056623, -0.045131, -0.044300, -0.182646, -0.320229, -0.404714, -0.897228, -0.462229, 0.010998, 0.021658, 0.036136, 0.166455, 0.152603, 0.170773, 0.110823, -0.179832, -0.210103, -0.650856, -0.690976, -0.663674, -0.477616, 0.114859, 0.077711, 0.015508, 0.241017, 0.309203, 0.224071, -0.077300, -0.401510, -0.220637, -0.668461, -0.545318, -0.326732, -0.005138, -0.199679, 0.142125, -0.051092, 0.119890, 0.124985, 0.012784, -0.102342, -0.333815, -0.079648, -0.305987, 0.002905, -0.003924, 0.074265, -0.143517, -0.161505, -0.212495, 0.077001, -0.092227, -0.214287, -0.147649, -0.673205, -0.361258, -0.335237, -0.115270, -0.254799, -0.007486, -0.298720, -0.363393, -0.508296, -0.524852, -0.764056, -0.793331, -0.570083, -0.758037, -0.931096, -0.618304, -0.244765, -0.260887, 0.045282, 0.075599, -0.156898, -0.076831, -0.312125, 0.091013, 0.129456, 0.015334, -0.247316, -0.011704, -0.050604, -0.435950, -0.127186, -0.090099, -0.117346, -0.353721, -0.114732, 0.027190, 0.085218, 0.169203, 0.234427, 0.089790, 0.070851, 0.017388, -0.186214, -0.203265, -0.134660, -0.127922, -0.146703, -0.099431, -0.172376, -0.015210, 0.084857, 0.103018, 0.114419, 0.100317, 0.108412, -0.011552, 0.078721, -0.132856, -0.127611, 0.035642, 0.012000, -0.053191, -0.055414, 0.042634, 0.043238, 0.051202, 0.019499, -0.032035, -0.085348, -0.008169, -0.188757, -0.156476, -0.040913, -0.072058, -0.197583, -0.201716, -0.096874, -0.112690, -0.085633, 0.016745, -0.028413, -0.044597, -0.142291, -0.144697, -0.221069, -0.113881, -0.150101, -0.317440, -0.423349, -0.396070, -0.357878, -0.322881, -0.171794, -0.019114, -0.046343, -0.141661, -0.220358, 0.018246, -0.403311, -0.389703, -0.356618, -0.418371, -0.276334, -0.181134, -0.159616, -0.123900, -0.150452, -0.170767, -0.267364, -0.219070, 0.309636, -0.060859, -0.166269, -0.076668, -0.139582, -0.015387, 0.100626, 0.083030, -0.009920, -0.114820, -0.191841, -0.195653, -0.111169, 0.385563, -0.028979, 0.099331, 0.147723, 0.114120, 0.207122, 0.216171, 0.138557, -0.000417, -0.052046, -0.069271, -0.047166, 0.064336, 0.234018, -0.004345, 0.135538, 0.134496, 0.167492, 0.155044, 0.149228, 0.102917, 0.029811, -0.050474, 0.017590, 0.052057, 0.081879, 0.135929, 0.133264, 0.077461, -0.003946, 0.096734, 0.089937, 0.049136, 0.024947, 0.066699, 0.094986, 0.112783, 0.085189, 0.089184, -0.042640, 0.126517, 0.007577, 0.006937, 0.025944, -0.057980, -0.086705, -0.094110, -0.038051, 0.089626, 0.067518, 0.062344, 0.053686, 0.029060, -0.295454, -0.360182, -0.312265, -0.273871, -0.207658, -0.062698, -0.026724, -0.106290, -0.025743, -0.048204, -0.044348, -0.067433, 0.196217},
  {-0.057690, -0.045878, -0.016137, -0.119556, 0.083177, 0.041389, -0.092088, -0.091907, -0.270883, -0.393095, -0.227753, -0.410668, -0.460156, 0.228539, 0.241455, 0.333953, 0.118604, 0.143751, 0.125270, 0.224131, -0.046757, -0.089135, -0.163192, -0.190409, -0.290390, -0.325753, -0.009981, 0.089162, 0.083879, 0.158514, 0.130504, 0.126161, 0.089225, -0.004374, -0.001224, 0.050508, -0.063516, -0.244423, -0.120361, -0.087711, 0.078919, 0.163269, 0.091042, 0.065832, 0.044712, 0.035808, -0.005924, -0.040509, 0.020078, -0.152336, -0.147426, -0.367409, -0.037007, 0.033922, -0.097008, -0.089915, -0.092518, -0.053257, -0.089272, -0.011647, -0.075471, -0.077905, -0.068558, -0.394834, -0.535498, -0.075674, -0.177806, -0.159762, -0.238469, -0.087438, -0.063967, 0.139846, 0.141569, 0.029774, -0.092921, -0.139677, -0.410049, -0.657317, -0.165339, -0.135414, -0.239631, -0.059928, 0.050848, 0.109526, 0.137018, 0.076615, 0.053614, -0.063382, -0.312712, -0.247305, -0.147011, 0.039852, -0.167299, -0.166690, -0.127239, -0.088798, 0.013697, 0.005404, 0.051396, 0.015614, -0.097599, -0.106348, -0.029551, 0.110117, 0.183916, -0.033457, -0.109166, -0.171170, -0.128902, -0.016707, -0.028992, -0.042738, 0.047141, -0.024762, -0.104146, -0.029367, -0.141429, 0.118464, 0.212671, 0.079012, 0.012802, -0.187477, -0.155578, -0.074192, 0.049120, -0.002936, -0.026142, -0.121680, -0.051219, -0.237370, 0.006620, 0.017825, 0.046757, 0.049808, -0.000201, -0.117796, 0.040909, -0.005720, -0.008980, 0.026143, -0.087688, -0.144654, -0.305580, 0.055418, 0.073230, 0.126395, 0.113722, 0.145358, 0.122532, 0.110204, 0.087471, 0.129466, 0.027561, -0.305189, -0.257223, 0.020635, -0.035373, 0.103814, 0.225034, 0.286222, 0.372276, 0.321928, 0.189634, 0.116850, 0.171755, -0.000016, -0.145972, -0.175175, -0.046318, -0.330765, -0.103037, -0.017077, -0.148058, -0.289011, -0.222505, -0.199348, -0.114401, 0.151266, 0.019347, -0.484242, -0.933652, -0.220084, 0.143880, -0.207595, -0.036881, -0.037996, 0.045075, 0.052371, 0.005412, -0.044272, -0.286539, -0.275366, -0.432502, -0.674405, -0.670114, -0.100653, 0.076886, 0.081145, -0.007707, 0.032419, 0.097008, 0.096700, -0.412088, -0.740307, -0.575940, -0.822881, -0.668870, -1.208558, 0.150640, -0.097156, 0.111063, 0.051982, 0.280752, -0.004699, -0.183975, -0.121070, -0.074245, -0.336206, -0.812753, -0.479347, 0.124541, 0.291428, 0.045060, 0.390918, 0.676524, 0.672488, 0.732104, 0.468891, 0.509880, 0.453160, 0.046773, -0.045503, -0.410212, -0.448430, -0.116868, 0.255214, 0.616893, 0.889768, 1.059775, 0.906756, 0.530691, 0.308005, 0.554148, 0.466239, 0.442636, 0.173951, -1.126039, -0.044810, 0.153193, 0.109674, 0.096268, 0.240630, 0.363891, 0.111045, 0.119406, -0.011946, 0.256986, -0.006398, -0.302527, -0.895130, 0.235179, -0.029442, -0.441167, -0.602098, -0.453885, -0.307074, -0.366258, -0.038414, -0.219056, -0.535778, -0.495295, -0.698929, -1.064519, -0.138559, -0.038169, -0.239042, -0.209028, -0.431130, 0.003181, 0.092322, -0.217650, -0.316949, -0.411123, -0.400876, -0.746159, -0.248393, -0.026325, -0.043249, -0.094797, -0.020213, 0.068850, 0.193101, -0.062202, -0.246821, 0.104512, -0.158436, -0.622720, -0.241521, -0.462434, 0.139258, 0.085061, 0.066075, -0.284465, 0.266575, 0.209458, 0.207944, 0.344756, 0.277208, 0.058554, -0.183901, -0.257383, -0.183153, 0.067162, -0.047038, 0.088902, 0.332419, 0.380520, 0.511731, 0.637687, 0.666751, 0.218922, 0.043217, -0.040614, -0.306454, -0.156420, -0.211445, 0.087511, -0.023424, -0.216345, 0.092411, 0.060237, 0.257483, 0.116228, 0.094091, -0.069993, -0.541840, -0.214434, -0.303629, -0.117379, -0.063379, -0.057052, 0.014862, -0.149769, -0.361601, -0.118452, -0.117108, -0.195243, -0.070814, -0.076305, -0.519177, -0.731503, -0.246125, 0.064828, 0.129841, 0.065041, -0.127196, -0.044945, 0.017860, -0.072350, -0.046260, -0.004332, -0.050652, -0.032407, -0.324714, -0.105978, 0.119917, 0.027518, 0.049897, 0.022398, -0.111566, -0.043641, 0.054124, 0.049289, 0.094021, -0.018172, -0.072755, -0.036692, -0.096790, 0.079256, 0.057754, 0.049097, -0.034084, -0.054683, -0.000004, 0.133143, 0.087968, 0.112199, -0.028036, -0.030648, -0.402655, -0.036993, 0.173742, -0.110508, -0.083089, -0.159867, -0.133175, -0.023671, 0.128633, 0.146139, 0.079185, 0.005824, -0.088358, -0.852222, -0.033722, 0.055605, -0.026193, -0.055828, -0.122563, -0.160252, 0.090171, 0.174247, 0.195689, 0.036816, -0.082486, -0.382279, -0.457616, -0.012580, -0.001532, -0.152964, -0.180223, -0.179256, -0.050068, 0.044291, 0.103351, 0.017723, -0.025785, -0.240635, -0.262178, -0.155025, -0.025409, -0.091035, -0.285473, -0.347356, -0.426478, -0.249093, -0.111955, -0.059724, 0.027872, 0.004331, -0.126716, -0.012668, -0.071071, 0.116850, 0.066985, -0.240249, -0.380726, -0.457827, -0.429455, -0.307066, -0.081540, 0.149056, -0.000681, -0.019204, -0.008126, -0.167053, 0.123273, 0.051195, -0.088428, -0.086791, -0.315776, -0.404983, -0.133120, 0.142487, 0.106639, 0.030364, 0.026944, -0.069620, -0.069703, 0.071783, 0.072451, 0.051685, 0.026290, -0.076906, -0.032649, 0.049770, 0.122387, 0.100838, 0.074379, -0.061846, -0.130892, -0.154111, -0.005128, 0.015266, 0.090628, 0.099545, 0.095839, 0.112267, 0.211534, 0.179363, 0.069547, 0.143360, -0.194610, -0.056537, -0.118987, 0.095224, 0.101395, 0.169060, 0.157866, 0.139966, 0.260296, 0.271093, 0.126850, 0.046211, -0.045745, -0.205455, -0.231511, -0.054025, 0.011021, -0.090344, -0.112452, -0.174606, -0.279370, -0.450023, -0.439088, -0.245512, -0.444646, -0.346735, -0.567765, -0.167980, 0.024293, -0.115378, 0.173538, -0.072237, -0.596087, 0.198930, 0.363502, 0.384828, -0.048285, -0.247489, -0.902134, -0.908684, -0.394361, -0.157575, -0.184783, -0.106569, 0.159823, 0.279006, 0.569275, 0.452208, 0.038342, -0.002416, -0.125763, -0.325270, -0.368612, -0.679185, -0.684920, -0.116403, 0.259471, 0.282289, 0.327632, 0.556740, 0.424133, 0.390171, 0.043575, -0.253213, -0.628398, -0.956374, -0.754112, -0.809751, -0.073814, 0.248091, 0.308674, 0.177135, 0.350891, 0.688405, 0.402915, -0.039416, -0.239711, -0.649269, -0.581545, -0.637004, -1.233980, -0.078882, 0.139510, 0.311281, 0.376262, 0.288184, 0.203059, 0.237908, 0.267885, 0.276405, 0.187000, 0.151211, -0.376164, -0.772956, -0.335167, 0.407134, 0.130906, 0.156999, 0.094407, 0.335780, 0.363144, 0.176654, 0.340547, 0.224192, -0.216130, -0.455973, -0.642852, 0.121316, -0.685690, -0.348234, 0.179305, 0.325592, 0.205503, 0.436275, 0.396434, 0.179613, -0.164104, -0.758256, -0.546591, -0.236535, -0.073642, -0.366692, -0.250419, 0.301591, 0.345882, 0.490554, 0.459573, 0.325795, -0.021346, -0.432798, -0.886062, -0.415963, -0.923839, -0.136270, 0.044553, 0.001813, -0.105268, 0.055519, 0.377247, 0.128032, 0.271467, -0.075650, -0.446844, -0.472177, -0.477898, -1.130231, -0.257321, -0.022647, 0.127139, 0.229487, 0.116118, 0.051851, 0.236049, -0.049284, -0.306145, -0.369839, -0.466674, -0.382531, -0.892526, -0.083645, -0.190529, -0.073705, 0.019787, 0.085671, 0.125919, 0.080976, 0.032622, -0.142973, -0.217686, -0.214740, -0.178558, -0.178784, 0.224827, 0.048906, 0.171214, 0.114573, 0.083056, 0.225499, 0.254058, -0.029042, 0.137095, -0.050985, -0.215912, -0.187400, -0.159218, -0.243405, 0.018811, -0.007328, 0.002369, -0.148892, -0.104869, -0.003429, 0.046091, -0.104214, -0.205346, -0.572569, -0.805642, -0.050606, 0.032492, 0.088198, 0.010720, 0.104623, 0.073490, 0.017059, 0.051003, 0.046261, -0.107326, -0.156859, -0.238042, -0.488659, -0.128218, -0.159850, 0.041391, 0.023572, 0.053182, 0.000761, 0.082658, 0.024309, -0.037188, -0.093157, -0.012522, -0.098499, -0.223295, -0.343790, -0.163230, 0.060306, -0.171662, -0.139520, -0.260123, -0.075658, -0.048057, 0.048182, -0.034479, 0.048984, -0.047079, -0.131453, -0.258226, -0.070436, -0.113623, -0.200533, -0.231111, -0.141452, -0.165563, 0.064739, 0.142537, -0.056066, -0.027534, -0.150025, -0.281623, -0.090580, -0.282596, -0.107215, -0.248604, -0.112897, -0.070050, 0.068279, 0.117518, 0.031216, -0.104752, -0.199361, -0.389915, -0.101034, -0.262803, -0.083557, -0.090616, -0.335628, -0.217486, -0.180986, 0.032334, -0.016190, -0.019350, -0.076153, -0.114634, -0.261153, -0.102130, -0.353374, 0.067466, 0.023110, -0.375877, -0.392553, -0.326225, -0.136126, -0.151164, -0.007745, 0.076605, -0.014296, 0.038283, 0.155358, -0.471320, 0.054698, 0.009977, -0.058124, -0.329989, -0.365063, -0.311468, -0.200826, 0.055777, 0.021643, -0.028146, -0.087418, 0.043284, -0.064832, -0.046120, 0.068023, 0.100306, -0.059925, -0.142231, -0.195120, 0.063311, 0.020920, 0.046887, -0.010520, -0.041153, -0.173393, -0.123117, -0.091222, 0.045147, 0.073774, -0.016831, 0.107281, -0.066626, 0.067333, 0.034792, 0.050915, -0.029966, -0.040737, -0.124900, -0.030066, 0.087642, 0.097765, 0.161394, 0.191189, 0.052744, 0.021465, 0.147941, 0.078487, 0.049275, 0.116062, 0.029064, 0.030269, -0.130770, 0.143504, 0.001719, 0.268214, 0.129682, 0.121208, 0.262774, 0.000909, -0.034468, 0.047779, -0.088935, -0.267148, -0.051360, -0.095725, -0.323012, -0.204414, 0.091510, 0.055583, -0.113836, -0.177378, -0.113566, -0.119046, 0.002651, 0.187908, 0.058900, -0.579473, -0.812187, 0.082625, 0.102236, -0.179177, -0.042935, 0.007486, 0.113665, 0.159883, 0.100686, 0.092340, 0.154237, 0.179451, 0.188659, -0.336310, -0.346196, 0.060162, -0.066649, 0.102629, 0.028700, 0.140223, 0.264167, 0.122751, 0.110206, 0.121801, 0.014311, 0.063008, 0.072587, -0.585300, 0.118427, -0.064792, -0.144753, -0.242000, -0.163377, -0.026467, 0.086602, -0.039453, -0.186074, -0.052698, -0.083880, -0.518142, -0.337397, 0.096377, -0.193310, -0.474712, -0.703341, -0.630458, -0.385549, -0.251880, -0.027369, -0.269740, -0.422231, -0.331780, -1.031338, -0.131898, 0.166789, -0.093813, -0.403201, -0.652138, -0.548517, -0.485500, -0.227390, -0.056022, 0.022454, -0.249068, -0.714802, -0.542516, 0.111157, 0.041882, 0.307366, -0.036525, -0.437824, -0.486703, -0.265457, -0.168866, 0.101252, 0.194816, 0.122811, -0.143518, -0.159884, 0.392384, 0.272699, 0.332251, 0.352362, 0.301218, 0.003396, 0.011190, -0.048437, 0.357633, 0.238365, -0.085627, -0.004117, -0.031997, -0.017726, 0.154888, 0.656754, 0.564575, 0.300802, 0.378388, 0.571850, 0.374735, 0.152398, 0.050873, -0.225540, -0.100095, -0.134786, 0.432738, 0.210949, 0.418811, 0.409277, 0.167573, -0.002280, -0.178139, 0.063373, -0.079999, -0.146068, -0.165510, -0.068462, -0.130395, 0.034855, 0.388053, 0.350662, 0.326163, 0.136986, -0.057050, -0.237656, -0.146751, -0.314214, -0.256574, -0.233908, -0.253545, -0.200837, -0.014029, 0.010130, 0.332172, 0.427454, 0.368620, 0.214230, -0.171617, -0.374095, -0.281994, -0.108083, -0.231120, 0.068510, -0.186554, -0.055889, -0.080380, -0.214262, -0.361188, -0.271552, -0.117376, -0.104764, -0.199259, -0.014903, -0.172789, -0.264781, -0.306000, -0.053071, -0.246002, -0.078508, -0.052874, -0.112400, -0.127644, -0.150614, -0.196527, -0.083303, -0.279352, -0.655025, -0.925287, -0.429727, -0.006806, 0.101099, -0.081742, 0.077571, 0.001522, -0.016413, -0.008621, -0.011279, -0.127011, -0.691071, -1.029705, -0.283235, -0.631322, -0.059042, -0.082927, -0.014036, 0.001775, -0.024284, -0.117885, -0.151563, -0.178140, -0.132681, -0.513994, -0.074077, -0.270687, -0.874337, -0.914214, 0.000549, -0.042555, -0.110396, -0.235814, -0.427796, -0.430970, -0.280848, -0.179024, 0.016767, 0.258697, -0.024324, -0.858714, -0.597662, 0.090729, -0.216082, -0.287217, -0.437579, -0.517370, -0.314423, -0.297715, -0.225122, -0.296720, -0.224233, -0.103518, -0.284282, -0.305581, -0.034571, -0.308447, -0.284825, -0.195224, -0.160194, 0.035629, -0.155916, -0.393198, -0.850300, -0.906496, -0.680928, -0.144391, -0.589915, -0.229254, -0.335496, -0.438555, -0.195877, -0.017525, 0.326932, 0.064567, -0.461310, -0.468728, -0.334332, -0.439028, -0.451488, -0.080916, 0.120171, -0.160389, -0.534988, -0.335637, -0.175551, 0.032512, -0.304361, -0.214872, 0.008152, -0.306158, -0.163303, -0.563504, -0.252798, 0.093231, 0.188593, -0.247522, -0.534091, -0.555703, -0.308836, -0.376033, -0.090608, -0.013035, -0.083547, 0.135068, -0.149495, -0.435594, 0.009502, 0.223315, 0.019243, -0.300161, -0.568275, -0.505438, -0.346767, -0.165802, -0.029980, -0.171704, -0.101090, -0.461985, 0.117428, 0.067119, -0.050039, 0.017673, -0.060247, -0.183016, -0.524442, -0.335696, -0.308420, -0.075842, -0.341849, -0.735089, -0.396355, -0.100036, 0.173494, 0.024778, 0.163104, 0.014851, 0.028108, -0.320110, -0.368045, -0.200314, -0.176867, -0.036652, -0.652593, -0.160891, -0.207044, -0.020721, 0.069824, 0.301442, 0.206797, 0.038845, 0.193812, -0.339772, -0.262982, -0.183802, -0.273212, -0.486732, -0.097931, -0.075397, -0.180831, -0.065833, -0.318078, -0.072277, -0.087253, 0.050168, -0.129321, -0.030010, -0.226044, -0.131728, -0.293000, -0.500301, -0.154204, 0.051432, 0.131872, 0.042958, 0.120545, 0.041687, -0.047357, 0.031098, 0.059590, 0.013451, -0.079492, -0.095662, -0.466392, -0.248614, -0.162697, 0.065825, 0.058294, 0.082625, 0.028485, 0.077805, 0.105542, 0.099898, 0.034238, 0.084196, 0.012354, -0.037952, -0.406561, -0.126178, 0.107527, -0.008351, 0.006596, 0.044360, 0.061698, 0.091051, 0.067185, 0.052674, 0.081259, 0.026543, -0.053860, -0.037957, -0.125939, 0.049033, -0.104802, -0.199196, -0.267133, -0.125416, 0.066236, 0.048116, 0.051882, 0.003899, -0.072352, -0.190540, -0.371092, -0.043291, -0.061482, -0.151427, -0.211652, -0.285637, -0.178649, 0.134867, 0.149567, 0.060816, -0.035269, -0.133398, -0.179647, -0.561827, -0.161683, -0.081065, -0.242078, -0.236892, -0.282551, 0.018441, 0.193213, 0.109375, 0.069072, -0.031181, -0.297748, -0.282482, -0.224976, -0.171661, -0.091457, -0.341637, -0.291589, -0.291534, -0.133730, -0.047073, 0.036799, 0.093300, 0.045726, -0.060825, -0.047379, -0.265342, 0.063191, 0.051979, -0.123424, -0.326005, -0.342601, -0.249758, -0.152347, 0.012294, 0.060307, 0.034022, 0.027013, -0.042712, -0.180185, 0.046299, 0.162823, 0.052630, -0.143174, -0.268010, -0.174062, -0.009567, 0.060858, 0.080155, 0.022280, 0.003405, -0.107634, -0.232136, -0.056056, 0.083985, 0.144862, 0.059140, -0.008702, -0.028111, 0.061132, 0.085474, 0.079287, 0.029007, -0.037237, -0.134874, -0.086745, 0.022424, 0.010150, 0.036309, 0.089973, 0.108872, 0.077415, 0.128206, 0.096133, 0.073360, 0.024138, -0.119916, -0.155122, -0.100163, 0.115322, 0.085300, 0.136923, 0.183946, 0.120115, 0.103325, 0.095108, 0.026040, 0.003065, -0.101658, -0.237766, -0.137242, -0.137738},
  {-0.331072, -0.100973, -0.254943, -0.304872, -0.242103, -0.168554, -0.325369, -0.522168, -0.452334, -0.329724, -0.264367, -0.165444, -0.030514, -0.539685, -0.081945, -0.202213, -0.334381, -0.222879, -0.029623, -0.098878, -0.075670, -0.082378, -0.161335, -0.008885, 0.120090, 0.122113, -0.472326, 0.168332, 0.045324, 0.035020, 0.137446, 0.108026, -0.091083, -0.149866, -0.136210, 0.055369, 0.208828, 0.171876, -0.144917, -0.167636, 0.141308, 0.108325, -0.025812, 0.024187, -0.085388, -0.247200, -0.317722, -0.142306, -0.094994, 0.027829, 0.031089, 0.026547, -0.279816, -0.129281, -0.084911, -0.184746, -0.130774, -0.170523, -0.224599, -0.195200, -0.121212, -0.053152, 0.016550, 0.016572, -0.125628, -0.115691, -0.100869, -0.056284, 0.004385, 0.039346, -0.053927, -0.222395, -0.017021, -0.039028, -0.035500, -0.022089, -0.028870, -0.366082, -0.138978, 0.025262, 0.119914, 0.116929, 0.184064, 0.187310, 0.045011, 0.012941, 0.100030, 0.224226, 0.259634, 0.001452, -0.339747, 0.044664, -0.041469, 0.057491, 0.080461, 0.104186, 0.197395, 0.111026, 0.109932, 0.139433, 0.178116, 0.110804, -0.116986, -0.334996, 0.061419, -0.139290, 0.045780, -0.024745, -0.035078, 0.026380, 0.078966, 0.205029, 0.153576, 0.132102, -0.094034, -0.143428, -0.205710, -0.141432, -0.211366, -0.133182, -0.168980, -0.171844, -0.068182, 0.082290, 0.098386, -0.047992, -0.074156, -0.048621, -0.309355, -0.297247, -0.012730, -0.003788, -0.224493, -0.171520, -0.229436, -0.141420, -0.010433, 0.021769, -0.039705, -0.032678, 0.013707, -0.016639, -0.244667, -0.116888, -0.194611, -0.190955, -0.005414, -0.143236, -0.063704, -0.021298, -0.040410, -0.021600, 0.104734, 0.062850, 0.116240, 0.051060, -0.048332, 0.026605, 0.005503, -0.110233, 0.045635, -0.078009, -0.108200, -0.134062, -0.204379, -0.210249, 0.018865, -0.053774, 0.114223, -0.617136, -0.384654, -0.382482, -0.377473, -0.437999, -0.201531, -0.033348, -0.160717, 0.062394, 0.092236, 0.125170, 0.016926, -0.017307, -0.390292, -0.150494, 0.157679, 0.171651, 0.023158, -0.053334, -0.011393, -0.167944, 0.089241, 0.014391, 0.085615, -0.048325, -0.223510, -0.123439, 0.290137, 0.045706, 0.181903, 0.004654, -0.398507, -0.370762, 0.188115, 0.137846, 0.164393, 0.640396, 0.327719, 0.154327, -0.180873, -0.196982, -0.253376, -0.315761, -0.374512, -0.220275, -0.174047, 0.139014, 0.550306, 0.607272, 0.495224, 0.317019, -0.188864, -0.076225, -0.083095, -0.166048, 0.101840, 0.174393, -0.145383, -0.242948, 0.229027, 0.116002, 0.166902, 0.305058, -0.058300, -0.019775, -0.196748, 0.256863, 0.267500, 0.083512, -0.028661, 0.099420, -0.010864, -0.364796, -0.314183, 0.331185, 0.338241, -0.068856, -0.244809, 0.201618, -0.084574, -0.180320, -0.073998, -0.054646, 0.008763, -0.227361, -0.457791, -0.222825, 0.217357, 0.222011, 0.003548, -0.203503, 0.327842, -0.212406, -0.195576, -0.266551, -0.086249, -0.135629, -0.095123, -0.187924, 0.310277, 0.524310, 0.172401, -0.134058, -0.367993, 0.133041, 0.294507, 0.011788, -0.295386, -0.367107, -0.380158, -0.192806, -0.140881, 0.031829, 0.364165, 0.318139, 0.153550, -0.154814, -0.341956, -0.223776, -0.093430, 0.015367, 0.153871, -0.353240, -0.293148, -0.374781, -0.371194, -0.146668, 0.025594, 0.227463, -0.207265, -0.417700, -0.380992, 0.196931, 0.603166, 0.087333, -0.362599, -0.250654, -0.309741, -0.460761, -0.454311, -0.025049, -0.312459, -0.493252, -0.088125, 0.048025, -0.144478, -0.004151, -0.477925, 0.008343, -0.305488, -0.590400, -0.349733, -0.470295, 0.206267, 0.219404, -0.205862, -0.075285, -0.052864, -0.349273, 0.185737, 0.308778, 0.272488, 0.155518, 0.262993, 0.098180, 0.430019, -0.013348, 0.012055, -0.241078, -0.099301, -0.312029, -0.130868, -0.345159, -0.425861, -0.433499, -0.256909, -0.048906, -0.245609, -0.187922, -0.113563, -0.094286, -0.003336, -0.396263, -0.383867, 0.031436, 0.055449, -0.030309, -0.003378, 0.306737, 0.100089, -0.134672, -0.005730, 0.014822, 0.035356, -0.026523, -0.207373, -0.147973, 0.038370, 0.266935, 0.258987, 0.153095, 0.156653, -0.039437, -0.117796, 0.029989, 0.093737, 0.102649, 0.042746, -0.183644, -0.110321, 0.073702, 0.145148, 0.048942, -0.131460, -0.094108, -0.183863, -0.090556, 0.042626, 0.130261, 0.007310, 0.066722, -0.293395, -0.128399, -0.128487, -0.037334, 0.093262, 0.042830, -0.035641, -0.230163, 0.006395, 0.082631, 0.049568, -0.133423, -0.213948, -0.274503, -0.228740, -0.087308, 0.081716, 0.254810, 0.235483, -0.123716, -0.218062, 0.066725, 0.041797, 0.015713, -0.205805, -0.406355, -0.203017, -0.283742, -0.066318, 0.201829, 0.215828, 0.209287, -0.128010, -0.077277, 0.126661, 0.175168, 0.092596, -0.118099, -0.276013, -0.082766, 0.074588, 0.081081, 0.233749, 0.137163, 0.007397, -0.027648, 0.121948, 0.220454, 0.225299, 0.139228, -0.082802, -0.221489, 0.051730, 0.042319, 0.084658, 0.019915, -0.036005, 0.022817, 0.054362, 0.120260, 0.102260, 0.141117, 0.090015, -0.092322, -0.521364, -0.061219, -0.096344, -0.092111, -0.103310, -0.087671, 0.032110, 0.081777, 0.059109, -0.051950, -0.021908, 0.008410, -0.058438, -0.547106, -0.074857, -0.079710, -0.114258, -0.082307, -0.092553, 0.037517, 0.012561, -0.078317, -0.138554, -0.056541, 0.096324, 0.040538, -0.380623, -0.212286, -0.339956, -0.165711, -0.125139, -0.061709, -0.070816, -0.166303, -0.188120, -0.139182, 0.025612, 0.132832, 0.062186, -0.181165, -0.111847, 0.066734, 0.018317, -0.076298, -0.052570, -0.126854, -0.219812, -0.206313, -0.082161, -0.188224, -0.091755, 0.111779, -0.030157, 0.003335, -0.264171, -0.190199, -0.128755, -0.159482, -0.443498, -0.961066, -0.476500, -1.038372, -0.347202, -0.210717, -0.110513, -0.079592, -0.652652, -0.427744, -0.406390, -0.349688, -0.294471, -0.720091, -0.960367, -0.576686, -0.327914, -0.630697, -0.455594, -0.207195, -0.363687, -0.370344, -0.637808, -0.651264, -0.575045, -0.786818, -1.070806, -1.102266, -0.850305, -0.693071, -0.516404, 0.096899, -0.055568, -0.173213, -0.521565, -0.162899, -0.365499, -0.781700, -0.825518, -1.311524, -1.542804, -1.695811, -1.497090, -0.747678, -0.252412, 0.190954, 0.052140, -0.444670, -0.385294, -0.490810, -0.908169, -1.108704, -0.983221, -0.755695, -0.963525, -1.015946, -0.500220, -0.259699, 0.046207, -0.142332, -0.199412, -0.514550, -0.679583, -0.456807, -0.455083, -0.499242, -0.884359, -1.077791, -0.980592, -0.564189, -0.238345, -0.136311, -0.337804, -0.299278, -0.672691, -0.137180, -0.009311, -0.064091, 0.147871, 0.003981, -1.020529, -0.258464, 0.257760, 0.554644, 0.184601, -0.114645, 0.351027, 0.482380, 0.291703, 0.249218, 0.099250, 0.393802, 0.328983, -0.240173, 0.241859, 0.220436, 0.127040, -0.227498, 0.096537, 0.434027, 0.237536, 0.218680, 0.049386, -0.079949, 0.172275, 0.092505, 0.070181, 0.183164, 0.427871, 0.214561, -0.043086, -0.384285, -0.010361, -0.001454, 0.170253, 0.306504, 0.081400, -0.048206, -0.169470, -0.241448, -0.102511, 0.344130, 0.017420, -0.159492, -0.561642, -0.116239, -0.343935, -0.008906, 0.036454, -0.369724, -0.485121, -0.315262, -0.428843, -0.112481, 0.350908, 0.057475, -0.055950, -0.523126, -0.986869, -1.069584, -0.329397, -0.192978, -0.093501, -0.146428, -0.208342, -0.237890, 0.023172, 0.245802, 0.169355, -0.244796, -0.244082, -0.099841, -0.033691, -0.049168, -0.085717, 0.079880, -0.126560, -0.169104, -0.124146, -0.111691, -0.171493, 0.075708, -0.030966, 0.002830, -0.403235, -0.398774, -0.327453, -0.382390, -0.288243, -0.258352, -0.044984, -0.257263, -0.114852, -0.073276, -0.040257, 0.006628, -0.236716, -0.416679, 0.000508, 0.021339, 0.134148, -0.010360, 0.036835, 0.084546, -0.067394, 0.142912, 0.203070, 0.102965, 0.029512, -0.144793, -0.088505, -0.045853, 0.224329, 0.149997, 0.100969, 0.041463, -0.097174, 0.108295, 0.263339, 0.218179, 0.279919, 0.279610, -0.148517, -0.306387, -0.105231, -0.043084, 0.057158, 0.001204, 0.078250, -0.090603, 0.126656, 0.125840, 0.173519, 0.046881, 0.174541, -0.032174, -0.235579, -0.145628, -0.027187, 0.188199, 0.164741, 0.148093, -0.199290, 0.279107, 0.151452, 0.136419, 0.067292, -0.077725, -0.082202, -0.267035, 0.001418, 0.106149, 0.265764, 0.143062, 0.164487, -0.133770, 0.124586, 0.117540, 0.187599, 0.085519, -0.498172, -0.207067, -0.063264, 0.045489, 0.119191, 0.210393, 0.058450, -0.076390, -0.059027, 0.149214, 0.216668, 0.222598, -0.013977, -0.346018, 0.061409, 0.073031, -0.009691, 0.117431, 0.063387, -0.080506, -0.024516, -0.027318, 0.102438, -0.055145, -0.002302, -0.147861, -0.142211, -0.086137, -0.054945, -0.124886, 0.027199, -0.129099, -0.234478, -0.021849, 0.016334, 0.031349, -0.093321, -0.045679, 0.007099, -0.271909, -0.063455, -0.115112, -0.168767, -0.127341, -0.130243, -0.156226, -0.067062, -0.013970, -0.004868, 0.029264, -0.006398, -0.081721, -0.387006, -0.106171, -0.153276, -0.449487, -0.208412, 0.008041, -0.071863, -0.106061, -0.013895, -0.019126, 0.099708, 0.081289, 0.172164, 0.001168, -0.219144, -0.158296, 0.035856, -0.146406, -0.028901, 0.015325, -0.053567, -0.012458, -0.059746, 0.204821, 0.089882, 0.128325, 0.057094, -0.011761, -0.095334, 0.049859, -0.016107, -0.484136, -0.353905, -0.415305, -0.397433, -0.101824, -0.197492, -0.043477, -0.033725, 0.085295, -0.131735, -0.233813, -0.431988, -0.524569, -0.528931, -0.493382, -0.355946, -0.170626, 0.021974, -0.322769, -0.039996, 0.102878, -0.081009, -0.006397, -0.142630, -0.234727, -0.113988, 0.261993, 0.140400, 0.007322, 0.033187, -0.211887, -0.383190, -0.126741, -0.063216, 0.091609, -0.047681, 0.054644, 0.026319, 0.317055, 0.322061, 0.408856, 0.208001, -0.151045, -0.344159, -0.445507, -0.229893, -0.185388, 0.106374, 0.149882, -0.291001, -0.402698, 0.039291, 0.273561, 0.304800, 0.097539, -0.169709, -0.345408, -0.356577, -0.046633, -0.106471, -0.149828, -0.004000, -0.286004, -0.372660, -0.109959, 0.139211, 0.569952, 0.216198, -0.094167, -0.431458, -0.184259, -0.143869, -0.083054, -0.347100, -0.361863, -0.157975, -0.161235, -0.370572, -0.283591, 0.187917, 0.137140, 0.170542, -0.211904, 0.154949, 0.069628, 0.252277, 0.075540, -0.400139, 0.038419, -0.124242, -0.364485, -0.479918, -0.071424, 0.256475, 0.454375, 0.022063, 0.235547, 0.216479, 0.202790, 0.398835, -0.200826, 0.028464, -0.035986, -0.214579, -0.337692, 0.142018, 0.237251, 0.479788, -0.144122, -0.005860, 0.144992, 0.165424, 0.213884, -0.341858, -0.077328, 0.029853, -0.281287, -0.385902, -0.153753, 0.180664, -0.013109, -0.097015, -0.020742, -0.087987, -0.132049, -0.199023, -0.427051, -0.442848, -0.599896, -0.369490, -0.288923, -0.700385, -0.533835, -0.774975, -0.180604, -0.039650, -0.061883, -0.024080, -0.084612, -0.359106, -0.097619, -0.174098, -0.162354, -0.391636, -0.659767, -0.505625, -0.383860, 0.066705, 0.281740, 0.086181, 0.107190, 0.077930, -0.233272, -0.086152, 0.109398, 0.032112, -0.142680, -0.211049, 0.099895, 0.093183, 0.403001, 0.212859, 0.041169, -0.078928, 0.067846, -0.104940, -0.074726, 0.009501, -0.100075, 0.025278, 0.075131, 0.196909, -0.253558, 0.241358, -0.070901, -0.180421, -0.249355, -0.007223, -0.028761, -0.625814, -0.240445, -0.339519, -0.518008, -0.543709, -0.309526, 0.022104, -0.385302, -0.176289, 0.120384, -0.003126, 0.016663, -0.227692, -0.589462, -0.117133, 0.085986, -0.030667, 0.045633, 0.185026, 0.449424, 0.256417, 0.383941, 0.580401, 0.289510, -0.085399, -0.213990, -0.160379, 0.180900, 0.125108, 0.290746, 0.427037, 0.524020, 0.806483, 1.076696, 0.896612, 0.704973, 0.778228, 0.187196, -0.106968, -0.284941, 0.146197, 0.144360, 0.287677, 0.372000, 0.552948, 0.939873, 0.953560, 0.854396, 0.698445, 0.632854, 0.127803, -0.367791, -0.128658, 0.016025, 0.170399, 0.382782, 0.337550, 0.494732, 0.421704, 0.521054, 0.482869, 0.601642, 0.288510, -0.420599, -0.488630, -0.145718, 0.143624, 0.307937, 0.364345, 0.130283, 0.072600, -0.207301, 0.336665, 0.546717, 0.431512, -0.332096, -0.324369, -0.632919, 0.028992, 0.185450, 0.168171, 0.225410, -0.178118, -0.621317, -0.552626, 0.236300, 0.281061, 0.200265, -0.391562, -0.395544, 0.106887, 0.264012, 0.087975, 0.063883, -0.083940, -0.425348, -0.527026, -0.121464, 0.207849, -0.023403, -0.462187, -0.620720, -0.149244, -0.004169, 0.169036, -0.034604, -0.030848, -0.329361, -0.286398, -0.217636, 0.051173, -0.030129, -0.291423, -0.278593, -0.377976, -0.146849, 0.060982, -0.140262, -0.049213, 0.032815, -0.125791, -0.114210, 0.043395, 0.193400, 0.197566, 0.071603, 0.123365, -0.460113, -0.485360, 0.060805, -0.023789, -0.416648, -0.228509, -0.057157, -0.070012, 0.106579, 0.391091, 0.448041, 0.360561, 0.394432, 0.139928, -0.446283, -0.138427, -0.212423, -0.290281, -0.184011, 0.105280, 0.151875, 0.201910, 0.322887, 0.405930, 0.383282, 0.261230, 0.372679, -0.234324, -0.036375, -0.053633, -0.061747, -0.205285, -0.110218, 0.043136, -0.195865, 0.013678, 0.004884, -0.158172, -0.297286, 0.185113, -0.169182, -0.057394, -0.364502, -0.334082, -0.180670, -0.350246, -0.397434, -0.265013, -0.095004, -0.464023, -0.362870, -0.182129, -0.273228, -0.118446, 0.004009, -0.549479, -0.213741, -0.111200, -0.135295, -0.205044, -0.026967, 0.030383, -0.270649, -0.022783, 0.019974, 0.074427, 0.053645, -0.039984, -0.399201, -0.041121, 0.216155, 0.172697, 0.034967, -0.026920, -0.105074, -0.164226, -0.050075, 0.028117, 0.078233, 0.117027, -0.018789, -0.164892, 0.033176, 0.083999, 0.112946, -0.052078, -0.182184, -0.267283, -0.331349, -0.155731, 0.009515, 0.040261, 0.175901, 0.017403, -0.238257, -0.134315, -0.098406, 0.081208, 0.008423, -0.066366, -0.271898, -0.215403, -0.009284, 0.011295, 0.002465, -0.101322, -0.089378, -0.229102, -0.061358, 0.014281, 0.213020, 0.183024, 0.096083, -0.230871, -0.069451, 0.073614, 0.052919, -0.073093, -0.257432, -0.356723, -0.171927, 0.108904, 0.112384, 0.263415, 0.211370, 0.162062, -0.163592, 0.103624, 0.192075, 0.125934, 0.111138, -0.137629, -0.195251, 0.041063, 0.102386, 0.167730, 0.243816, 0.184613, 0.128101, 0.039180, 0.105213, 0.204527, 0.224357, 0.070830, -0.012041, -0.188100, 0.073133, 0.004615, 0.136616, 0.095725, 0.017201, 0.034636, 0.115497, 0.218864, 0.127777, 0.088147, 0.097010, -0.155522, -0.332774, -0.054974, -0.113397, -0.121638, -0.106974, -0.164226, -0.033914, 0.067433, 0.145850, 0.018710, 0.034249, 0.055087, -0.232800, -0.444816, -0.030209, -0.089845, -0.226969, -0.078307, -0.128416, -0.150340, -0.078643, -0.034647, -0.105508, 0.009879, 0.079807, -0.078955, -0.515896, -0.180136, -0.335384, -0.240296, -0.163402, -0.123877, -0.166873, -0.157880, -0.162202, -0.093737, -0.054286, 0.083623, 0.062968, -0.046767, -0.118350, 0.051866, -0.020813, -0.122220, -0.060188, -0.160337, -0.132422, -0.119323, -0.081832, -0.006484, -0.017491, 0.042366, -0.095618},
  {-0.147373, -0.083132, -0.319355, -0.249308, -0.568929, -0.381989, -0.372385, -0.167688, -0.059638, -0.072248, 0.051703, -0.184164, -0.105511, -0.053580, -0.085972, -0.172158, -0.103597, -0.196804, -0.093334, -0.034580, 0.182202, 0.119785, 0.099715, 0.000529, -0.000351, 0.155500, 0.210259, 0.165561, -0.016005, -0.106967, -0.041247, 0.014164, -0.060959, 0.019412, 0.107453, -0.021343, 0.087090, 0.171918, 0.124634, -0.340132, -0.019478, -0.063626, -0.016771, 0.066845, 0.041810, 0.016816, 0.100850, 0.117350, 0.066421, 0.075311, 0.139898, 0.298888, -0.414530, -0.184171, 0.020170, 0.157788, 0.122159, 0.065412, 0.058072, -0.042285, 0.013770, 0.053042, 0.102377, 0.335650, 0.347047, -0.066825, -0.021560, 0.039508, 0.076779, 0.066719, 0.080068, 0.058794, 0.009653, -0.160698, -0.171302, -0.204554, 0.002033, 0.090583, -0.132075, -0.239576, 0.091979, 0.097901, 0.133654, 0.169870, 0.101778, -0.028157, -0.106942, -0.158067, -0.156665, -0.133210, 0.140787, -0.147030, -0.045876, -0.022957, 0.024588, 0.140867, 0.118643, -0.063903, -0.195383, -0.095552, -0.035003, -0.039138, -0.027768, -0.042499, -0.242661, 0.191299, 0.001361, -0.071586, -0.041640, -0.080680, -0.172479, -0.104938, -0.027511, 0.049279, -0.009649, -0.040832, -0.007327, -0.361575, 0.013778, 0.074670, -0.130211, -0.117350, -0.134892, -0.083772, -0.185221, -0.017484, -0.020418, 0.055301, -0.110194, -0.062248, -0.218227, -0.250543, 0.031684, 0.095302, 0.104822, 0.133339, 0.091492, 0.031842, 0.031540, 0.033491, 0.022161, -0.023947, -0.064694, -0.010081, -0.102268, -0.170735, -0.011002, 0.066179, 0.151255, 0.115058, 0.155748, 0.015615, 0.009996, 0.038954, 0.002114, 0.081096, 0.036777, -0.202353, -0.172033, -0.117565, 0.015114, 0.017841, 0.166464, 0.148040, 0.147596, 0.025500, 0.167234, 0.020923, -0.199324, 0.030186, -0.025382, -0.249579, -0.074284, -0.347003, -0.454269, 0.013550, 0.214699, 0.340768, 0.115848, -0.100143, -0.319734, -0.201673, -0.000951, -0.008359, 0.074156, 0.170976, -0.054290, -0.068985, -0.051214, 0.181343, 0.255651, -0.023027, 0.361755, 0.673268, 0.040927, -0.401621, 0.042887, 0.004249, -0.144473, -0.182748, -0.085638, -0.007712, 0.257496, 0.752062, 0.891981, 0.705214, 0.646963, 0.345673, -0.564464, 0.027753, -0.258011, -0.475186, -0.462431, -0.307694, -0.144145, 0.020021, 0.572890, 0.955138, 1.125145, 0.649931, 0.485075, -0.177685, -0.120335, -0.587635, -0.864700, -0.577502, -0.428892, -0.491824, -0.788562, -0.475506, -0.006070, -0.110524, 0.305343, 0.365228, -0.012363, -0.468196, -0.619755, -0.490905, -0.350782, -0.120413, -0.146736, -0.509131, -1.013793, -0.894835, -0.699159, 0.041275, 0.646195, -0.288032, -0.296104, -0.567370, -0.542583, -0.503404, -0.080361, -0.085772, -0.348891, -0.760994, -1.279714, -1.118298, -0.475226, 0.011641, -0.193139, 0.157822, -0.094010, -0.232147, -0.406966, -0.142704, -0.222903, -0.243363, -0.592248, -0.934210, -0.805762, -0.622597, -0.325291, -0.358194, 0.172822, 0.225263, -0.196885, -0.102507, 0.002273, -0.218167, -0.194576, -0.338697, -0.518795, -0.368522, -0.252257, 0.044368, -0.416965, 0.038009, 0.410344, 0.263737, -0.071772, 0.043699, 0.232361, 0.141252, 0.151088, 0.096022, 0.118302, -0.241275, 0.022527, -0.050953, -0.028780, 0.335256, 0.773040, 0.409744, 0.437104, 0.282670, 0.252763, 0.300251, 0.285661, 0.032193, 0.253954, -0.279251, -0.044424, -0.392909, -0.094046, 0.005406, 0.282545, 0.412820, 0.544195, 0.472579, 0.455279, 0.093818, 0.081092, -0.030680, 0.119553, -0.105062, -0.102802, -0.639819, -0.441999, -0.181483, -0.173629, 0.250039, 0.291262, 0.109557, 0.205607, 0.234191, -0.073010, -0.016139, -0.147707, 0.061598, 0.088247, -0.150962, -0.174318, -0.285211, -0.296993, -0.166611, 0.083363, 0.204907, 0.023391, -0.187278, -0.155207, -0.255101, 0.025704, -0.183364, -0.183383, -0.007136, -0.141465, -0.268830, 0.055355, 0.265326, 0.210649, -0.150231, -0.049519, 0.105276, 0.216129, -0.064693, -0.090146, -0.115345, 0.034946, 0.080753, 0.080943, -0.030768, 0.108932, 0.057705, -0.085836, 0.030429, 0.157933, -0.043380, -0.179064, -0.126564, -0.048985, 0.085586, 0.106375, -0.008526, -0.121152, 0.024808, -0.067088, -0.074353, 0.080749, 0.277820, -0.371148, -0.129727, 0.065033, 0.020110, 0.063826, 0.121646, -0.036704, -0.217874, -0.314928, -0.324683, -0.194056, 0.138343, 0.341849, -0.281296, -0.120073, -0.021373, 0.095030, 0.082924, 0.139302, -0.016807, -0.292163, -0.487466, -0.421631, -0.401077, -0.066885, 0.179344, -0.114187, 0.039350, -0.014726, -0.070917, 0.066700, 0.049083, -0.024920, -0.201332, -0.279776, -0.391479, -0.286031, -0.210560, -0.063908, -0.093855, -0.088525, -0.122501, -0.277083, -0.170130, -0.070266, -0.134295, -0.188905, -0.227444, -0.263107, -0.127561, -0.019307, 0.026363, -0.114051, 0.009700, -0.102311, -0.263484, -0.348075, -0.212168, -0.115349, -0.148307, -0.100070, -0.019842, -0.070919, 0.124820, 0.125395, -0.097732, 0.002316, 0.020475, -0.163746, -0.148747, -0.135371, -0.087941, -0.112349, 0.004552, 0.029361, -0.007840, 0.120727, 0.273344, -0.172169, -0.068153, 0.034130, 0.076892, 0.112510, 0.057952, 0.075478, 0.135682, 0.105516, 0.053560, 0.074395, 0.031305, 0.263755, -0.117418, -0.087687, -0.134280, -0.009267, 0.072817, 0.108599, 0.163720, 0.149006, 0.168922, 0.039756, 0.092171, 0.086296, 0.189728, -0.037373, -0.116038, -0.052509, -0.066512, -0.027713, 0.068585, 0.190394, 0.128237, 0.119518, 0.164165, 0.064386, -0.004651, 0.023411, 0.003835, -0.111738, -0.251604, -0.187383, -0.237675, -0.179777, -0.404122, -0.314290, -0.736410, -0.368187, -0.138828, 0.162745, -0.067896, -0.248367, 0.069403, -0.102254, -0.586369, -0.954059, -0.732585, -0.282040, -0.196666, 0.257140, 0.375223, 0.138203, 0.001070, -0.211062, -0.003304, -0.448927, -0.962387, -1.171715, -0.660833, -0.122179, 0.057694, 0.307402, 0.250542, 0.277409, 0.192443, 0.264721, -0.074664, -0.584321, -0.205376, -0.939784, -0.682084, -0.748437, -0.191475, 0.209046, 0.529513, 0.665591, 0.799204, 0.433848, 0.289496, 0.397463, -0.884797, -0.293967, -0.506792, -0.227124, -0.260306, -0.145780, 0.025562, 0.496604, 0.924194, 0.795330, 0.603554, 0.627427, 0.582600, -0.717397, -0.266385, -0.258319, -0.101717, -0.072444, 0.039771, 0.170132, 0.558562, 0.498814, 0.446414, 0.496619, 0.683709, 0.696790, -0.063596, -0.171405, 0.234848, 0.251539, 0.147312, 0.227425, 0.265134, 0.208340, 0.056860, 0.225724, 0.058649, -0.025759, 0.402397, -0.258226, 0.166079, 0.433494, 0.456750, 0.434857, 0.246110, 0.085873, -0.067835, -0.183746, -0.319529, -0.238613, -0.271826, -0.486833, -0.047439, 0.141833, 0.277299, 0.458377, 0.832059, 0.347551, 0.088479, -0.038735, -0.265931, -0.271744, -0.243117, -0.369568, -0.261104, -0.208018, 0.006309, 0.353680, 0.282782, 0.408172, 0.080906, 0.100223, -0.192505, -0.302295, -0.226229, -0.307439, -0.259985, -0.447572, -0.663946, -0.406468, 0.027392, 0.163666, 0.147208, 0.103002, -0.000418, -0.059286, -0.071544, -0.235390, -0.184482, -0.054996, -0.197941, -0.501412, 0.027409, -0.198867, -0.005806, 0.098838, 0.089029, 0.090213, -0.113596, -0.227361, -0.359862, -0.415310, -0.061169, 0.243171, -0.110636, -0.101571, -0.256488, -0.038425, 0.194765, 0.227027, 0.197502, 0.156856, 0.033836, -0.052162, 0.006413, -0.089287, 0.014183, 0.043875, 0.028433, -0.129674, -0.166870, -0.179115, -0.289882, -0.179865, 0.036368, 0.161887, 0.072474, -0.203519, -0.217263, 0.119078, 0.021917, -0.111929, 0.024015, -0.050700, 0.024370, -0.103214, -0.017177, 0.085988, 0.168781, -0.047072, -0.011043, 0.147800, 0.031031, -0.003235, -0.131097, 0.025985, 0.090155, 0.071935, -0.040206, 0.032372, 0.000511, -0.086386, -0.081365, -0.004945, 0.070708, 0.239410, -0.127970, -0.152160, 0.092356, 0.112203, 0.095621, 0.059713, -0.121284, -0.197536, -0.264384, -0.278106, -0.151759, 0.119869, 0.286399, -0.249424, 0.053941, 0.084823, 0.072464, 0.136429, 0.094031, -0.116345, -0.290723, -0.437620, -0.506713, -0.340385, 0.084309, 0.162234, -0.189224, -0.201878, -0.037230, -0.074060, 0.140938, 0.143938, -0.073880, -0.206650, -0.198973, -0.387696, -0.395989, -0.311079, 0.181519, -0.299149, -0.346363, -0.210048, -0.154111, 0.165432, 0.104950, -0.071602, -0.181489, -0.085430, -0.068902, -0.086478, -0.123840, -0.088141, -0.187780, 0.020844, -0.131614, -0.278983, -0.022689, -0.105049, -0.094858, -0.089360, 0.009401, 0.006873, 0.068266, 0.142748, -0.165231, -0.011990, 0.039734, 0.036388, -0.181263, -0.178048, -0.236084, -0.079906, -0.005572, 0.019727, 0.168828, 0.155622, 0.095377, -0.121675, -0.093659, -0.201570, 0.118890, 0.105258, 0.067104, -0.088377, -0.003899, 0.074586, 0.001299, 0.111447, 0.221158, 0.224167, -0.031546, -0.370751, -0.115681, -0.048847, 0.142708, 0.070296, 0.155620, 0.070547, 0.061821, 0.169843, 0.146918, 0.113332, 0.136142, 0.041643, 0.056141, -0.079739, -0.162099, -0.017246, 0.124671, 0.106551, 0.145862, 0.186623, 0.125089, 0.195610, 0.169503, 0.099392, -0.072247, -0.039316, -0.163962, -0.454637, -0.261898, -0.030822, 0.065363, -0.064639, 0.180168, 0.072901, 0.155567, 0.029706, -0.069520, 0.009452, -0.033327, 0.010448, -0.058470, -0.124861, -0.113775, -0.357993, -0.416280, -0.059259, 0.085197, 0.218303, 0.056765, -0.115526, -0.195475, 0.004737, -0.366360, 0.072751, 0.039619, 0.097165, -0.056278, -0.218535, -0.097983, -0.005280, 0.014708, -0.226443, -0.077488, 0.278572, -0.284918, -0.253170, -0.080975, 0.074877, 0.145895, 0.051506, -0.101075, -0.142548, -0.081171, -0.215094, -0.259874, -0.293708, 0.115247, -0.464230, -0.351547, -0.046027, -0.039940, 0.214269, 0.030903, -0.031384, -0.220524, -0.267020, -0.270381, -0.317840, -0.103052, 0.287448, -0.342841, -0.356132, -0.153870, -0.130906, 0.311113, 0.251665, 0.251194, 0.057977, 0.110451, 0.019465, -0.285108, -0.164397, 0.385919, -0.268492, -0.395655, -0.066954, 0.015455, 0.123372, 0.352952, 0.665360, 0.490860, 0.395585, 0.156178, -0.142468, -0.239227, -0.077311, -0.051969, 0.025794, 0.042179, -0.030870, -0.207431, 0.128372, 0.441310, 0.514459, 0.238451, 0.086502, 0.154242, -0.064105, 0.014883, -0.144725, 0.121449, 0.689346, 0.534839, 0.258218, 0.187037, 0.411142, 0.374485, 0.171083, -0.027985, 0.142632, 0.127470, 0.250453, -0.032753, 0.053974, 0.207335, 0.462111, 0.385604, 0.135915, 0.174694, 0.006752, 0.044721, 0.023258, -0.063975, 0.236661, 0.396100, -0.417518, 0.142664, 0.379664, 0.346513, 0.162197, 0.196189, 0.145488, -0.036202, -0.128524, -0.198269, -0.281309, -0.114919, 0.236472, 0.118635, 0.008965, 0.149012, 0.179717, 0.349768, 0.085930, -0.081831, -0.037829, -0.037780, -0.259770, -0.257780, -0.213920, 0.174269, -0.004009, -0.065193, -0.035778, 0.240723, 0.387014, 0.325310, -0.012591, -0.051059, -0.270122, -0.176834, -0.064355, -0.016700, 0.065401, -0.048467, -0.006147, -0.281421, -0.368767, -0.252850, -0.019567, -0.148403, -0.034584, -0.093687, -0.038920, -0.156540, -0.271804, 0.052118, -0.002553, -0.003068, -0.225858, -0.195107, -0.367021, -0.426029, 0.069064, 0.120002, 0.194354, -0.177595, -0.252329, -0.208317, -0.240551, -0.028446, -0.022481, -0.018287, 0.132847, -0.155372, -0.298244, -0.139844, -0.065454, 0.319014, -0.023264, 0.105871, -0.016065, -0.263014, -0.038331, 0.170610, 0.197930, 0.065752, -0.054700, -0.093972, -0.080777, -0.326246, -0.386698, -0.573686, -0.221208, -0.055232, 0.050433, -0.528579, 0.218905, 0.216752, 0.124840, 0.078762, 0.023403, -0.213356, -0.715439, -1.279520, -1.422320, -1.021677, -0.305816, -0.108042, -0.541062, 0.072739, 0.161405, 0.190772, 0.139108, 0.234451, -0.400258, -1.035510, -1.311092, -1.481874, -1.397251, -0.763963, 0.029513, -0.137628, -0.159841, -0.058717, -0.089582, 0.211485, 0.069160, -0.240517, -0.668823, -0.769925, -1.070107, -0.999412, -0.703142, -0.031115, -0.183491, -0.400287, -0.279625, -0.141173, 0.206893, -0.061727, -0.001551, -0.405074, -0.079369, -0.440919, -0.193145, -0.367571, -0.008829, -0.205250, -0.286259, -0.468257, -0.198255, 0.006782, -0.112454, -0.034873, -0.075257, 0.079434, 0.085897, 0.442196, 0.107650, -0.676110, -0.351132, -0.101084, -0.289239, -0.357656, -0.341034, -0.424653, -0.051231, 0.037959, 0.121977, 0.142408, 0.432992, -0.092713, -0.656779, -0.545490, -0.113977, -0.100038, -0.300715, -0.299540, -0.459672, -0.050000, 0.039448, 0.000473, 0.216882, 0.476091, 0.094206, -0.420336, -0.420449, -0.175681, -0.012665, 0.054648, -0.126808, -0.252232, -0.152285, -0.132389, -0.192990, -0.228977, 0.201250, 0.038191, -0.375899, -0.106735, -0.199355, -0.360795, 0.024170, -0.142896, -0.039206, -0.322630, -0.298878, -0.349293, -0.111028, -0.055357, 0.085606, -0.287755, -0.017180, -0.181684, -0.564330, -0.239833, -0.009931, -0.190064, -0.264627, -0.153848, -0.264423, -0.102163, -0.120505, 0.040032, -0.045899, -0.147032, 0.045231, 0.024247, -0.003497, -0.169389, -0.545065, -0.223370, -0.016734, 0.045082, 0.073261, -0.112860, -0.286619, -0.151550, -0.430319, -0.076757, -0.113101, -0.207186, -0.158298, -0.298557, -0.080008, 0.105843, 0.241485, 0.044409, -0.000812, -0.051410, 0.000099, 0.181524, -0.047497, 0.021077, 0.020509, 0.007066, -0.040896, -0.006935, -0.041958, 0.047359, -0.040967, -0.102080, 0.110339, 0.162172, -0.116005, -0.225544, -0.075114, 0.097067, 0.093936, 0.095611, -0.058074, 0.008004, -0.008950, -0.048202, -0.063373, 0.102071, 0.259070, -0.344813, -0.077171, 0.087279, 0.136888, 0.214520, 0.121520, -0.047775, -0.134846, -0.109236, -0.097766, 0.007406, 0.178985, 0.321421, -0.272627, -0.086589, 0.033653, 0.061966, 0.152201, 0.139892, -0.030806, -0.216821, -0.262594, -0.289050, -0.259847, 0.001375, 0.361860, -0.168567, -0.223701, -0.107088, -0.045844, 0.105647, 0.118422, 0.039748, -0.209920, -0.220463, -0.231148, -0.190770, -0.171696, -0.149495, -0.198585, -0.196387, -0.210195, -0.245409, -0.034030, 0.045850, -0.099661, -0.190097, -0.140168, -0.141259, -0.096761, 0.015146, -0.174446, -0.159927, 0.056161, -0.126619, -0.277927, -0.206681, -0.182147, -0.068026, -0.102476, -0.088507, -0.078190, -0.035712, 0.058687, -0.049262, -0.216409, 0.021338, 0.071896, -0.020210, -0.196146, -0.096341, -0.088983, -0.055592, -0.028676, -0.005292, 0.067733, 0.164388, 0.192081, -0.334117, -0.108263, 0.001584, 0.091419, 0.099843, 0.053431, 0.040641, 0.028026, 0.033143, 0.032945, -0.008385, 0.155115, 0.160961, -0.163529, -0.071922, -0.121455, 0.055236, 0.071892, 0.139945, 0.145147, 0.140346, 0.070829, 0.015681, -0.003326, 0.116867, 0.136444, -0.036232, -0.143612, -0.109178, -0.008200, 0.096503, 0.145350, 0.191901, 0.135164, 0.071740, 0.080357, 0.090001, -0.078761, 0.029554},
